/*!
 * The following copyright notice may not be removed under any circumstances.
 * 
 * Copyright:
 * Copyright (c) 2003 by Bitstream, Inc. All Rights Reserved.
 * 
 * Trademark:
 * Bitstream Vera is a trademark of Bitstream, Inc.
 * 
 * Manufacturer:
 * Bitstream Inc.
 * 
 * Vendor URL:
 * http://www.bitstream.com
 */
Cufon.registerFont({"w":1425,"face":{"font-family":"Bitstream Vera Sans","font-weight":700,"font-stretch":"normal","units-per-em":"2048","panose-1":"2 11 8 3 3 6 4 2 2 4","ascent":"1556","descent":"-492","x-height":"29","bbox":"-115 -1901 2241 483","underline-thickness":"258","underline-position":"-98","unicode-range":"U+0020-U+2122"},"glyphs":{" ":{"w":713},"!":{"d":"287,-1493r360,0r0,573r-51,418r-258,0r-51,-418r0,-573xm287,-356r360,0r0,356r-360,0r0,-356","w":934},"\"":{"d":"872,-1493r0,555r-237,0r0,-555r237,0xm432,-1493r0,555r-237,0r0,-555r237,0","w":1067},"#":{"d":"911,-1470r-96,385r264,0r97,-385r221,0r-97,385r277,0r0,213r-330,0r-69,274r284,0r0,215r-336,0r-96,383r-221,0r96,-383r-264,0r-96,383r-223,0r96,-383r-279,0r0,-215r328,0r70,-274r-283,0r0,-213r338,0r96,-385r223,0xm1024,-872r-264,0r-70,274r264,0","w":1716},"$":{"d":"795,-1329v142,12,275,35,401,69r0,254v-121,-51,-249,-86,-401,-94r0,287r32,6v169,27,289,71,357,133v68,62,102,155,102,277v0,123,-41,217,-122,283v-81,66,-204,103,-369,112r0,303r-162,0r-1,-301v-177,-7,-330,-40,-470,-92r0,-262v138,71,286,118,471,126r0,-311v-161,-26,-305,-75,-373,-138v-66,-61,-100,-146,-100,-259v0,-119,40,-213,122,-280v82,-67,199,-103,350,-109r1,-231r162,0r0,227xm633,-1097v-84,3,-156,47,-156,126v0,90,65,124,156,135r0,-261xm795,-232v105,-1,174,-35,174,-133v0,-107,-64,-132,-174,-145r0,278"},"%":{"d":"1696,-554v-50,-79,-169,-79,-219,0v-48,75,-48,277,-1,352v49,79,172,80,221,0v46,-75,46,-277,-1,-352xm1186,-379v0,-247,155,-405,401,-405v247,0,400,157,400,405v0,248,-153,408,-400,408v-247,0,-401,-160,-401,-408xm670,29r-221,0r933,-1549r222,0xm66,-1114v0,-248,152,-406,399,-406v247,0,399,158,399,406v0,248,-152,407,-399,407v-247,0,-399,-159,-399,-407xm575,-1290v-51,-80,-171,-80,-221,0v-48,76,-48,278,0,354v50,81,172,81,222,0v47,-77,47,-278,-1,-354","w":2052},"&":{"d":"864,-1278v-91,-1,-162,32,-162,113v0,72,49,121,97,174r409,450v69,-92,106,-203,113,-354r311,0v-21,247,-95,432,-225,573r293,322r-424,0r-98,-109v-127,85,-272,138,-467,138v-175,0,-317,-47,-425,-139v-108,-92,-163,-211,-163,-357v0,-97,23,-184,71,-259v48,-75,126,-147,234,-218v-48,-61,-82,-122,-82,-217v0,-109,42,-196,127,-261v85,-65,197,-98,338,-98v143,1,270,24,395,58r0,278v-106,-53,-206,-92,-342,-94xm469,-506v-4,151,137,280,289,277v100,-2,173,-33,233,-82r-391,-432v-75,54,-128,124,-131,237","w":1786},"'":{"d":"432,-1493r0,555r-237,0r0,-555r237,0","w":627},"(":{"d":"772,270r-297,0v-102,-165,-177,-322,-226,-470v-98,-299,-97,-585,1,-884v49,-150,124,-307,225,-470r297,0v-85,158,-149,313,-192,464v-85,303,-85,591,0,895v42,151,106,306,192,465","w":936},")":{"d":"164,270v85,-159,149,-314,192,-465v85,-303,85,-592,0,-895v-43,-151,-107,-306,-192,-464r297,0v101,163,176,320,225,470v98,299,99,585,1,884v-49,148,-124,305,-226,470r-297,0","w":936},"*":{"d":"1030,-1217r-330,173r330,174r-76,141r-333,-184r0,344r-170,0r0,-344r-334,184r-76,-141r334,-174r-334,-173r76,-141r334,182r0,-344r170,0r0,344r333,-182","w":1071},"+":{"d":"977,-1284r0,524r522,0r0,236r-522,0r0,524r-238,0r0,-524r-522,0r0,-236r522,0r0,-524r238,0","w":1716},",":{"d":"209,-387r360,0r0,305r-247,373r-213,0r100,-373r0,-305","w":778},"-":{"d":"111,-735r628,0r0,291r-628,0r0,-291","w":850},".":{"d":"209,-387r360,0r0,387r-360,0r0,-387","w":778},"\/":{"d":"526,-1493r222,0r-527,1683r-221,0","w":748},"0":{"d":"942,-748v0,-187,-17,-318,-52,-394v-35,-76,-94,-115,-177,-115v-83,0,-142,39,-177,115v-35,76,-53,207,-53,394v0,189,18,322,53,399v35,77,94,116,177,116v82,0,141,-39,176,-116v35,-77,53,-210,53,-399xm1327,-745v0,247,-53,439,-160,573v-107,134,-258,201,-454,201v-197,0,-348,-67,-455,-201v-107,-134,-160,-326,-160,-573v0,-248,53,-439,160,-573v107,-134,258,-202,455,-202v196,0,347,68,454,202v107,134,160,325,160,573"},"1":{"d":"240,-266r340,0r0,-965r-349,72r0,-262r347,-72r366,0r0,1227r340,0r0,266r-1044,0r0,-266"},"2":{"d":"166,-1432v154,-51,318,-88,506,-88v179,0,317,39,416,118v99,79,149,188,149,329v0,81,-21,157,-63,227v-42,70,-130,165,-265,283r-319,280r657,0r0,283r-1085,0r0,-283r545,-481v49,-44,85,-87,108,-129v23,-42,35,-86,35,-131v1,-143,-110,-233,-258,-233v-60,0,-126,13,-197,39v-71,26,-148,63,-229,114r0,-328"},"3":{"d":"1227,-1137v0,191,-108,291,-273,332v185,47,308,164,308,381v0,148,-57,261,-170,338v-113,77,-279,115,-496,115v-170,-1,-322,-29,-459,-74r0,-297v125,62,259,109,424,109v102,0,181,-18,235,-53v54,-35,81,-86,81,-152v0,-68,-27,-119,-83,-154v-56,-35,-138,-53,-247,-53r-154,0r0,-248r162,0v97,0,169,-15,216,-45v47,-30,71,-77,71,-139v0,-130,-117,-181,-264,-180v-143,1,-267,35,-377,83r0,-282v137,-39,283,-63,446,-64v194,0,339,32,435,96v96,64,145,159,145,287"},"4":{"d":"754,-1176r-422,625r422,0r0,-625xm690,-1493r428,0r0,942r213,0r0,279r-213,0r0,272r-364,0r0,-272r-662,0r0,-330"},"5":{"d":"596,-741v-143,3,-260,39,-379,88r0,-840r957,0r0,283r-650,0r0,231v56,-15,113,-25,181,-25v348,-4,578,181,577,517v0,161,-56,288,-166,379v-110,91,-263,137,-459,137v-191,0,-352,-39,-499,-99r0,-303v134,76,264,136,438,140v174,4,301,-90,301,-254v0,-165,-127,-257,-301,-254"},"6":{"d":"944,-475v0,-161,-54,-262,-203,-262v-147,0,-202,102,-202,262v0,160,54,262,202,262v148,0,203,-102,203,-262xm825,-1518v149,0,274,24,392,64r0,276v-108,-50,-208,-88,-343,-88v-243,0,-361,143,-380,379v82,-60,178,-96,311,-98v295,-4,510,195,510,485v0,326,-242,529,-578,529v-194,0,-345,-66,-451,-197v-106,-131,-159,-316,-159,-557v0,-247,63,-440,187,-581v124,-141,294,-212,511,-212"},"7":{"d":"137,-1493r1125,0r0,217r-582,1276r-375,0r551,-1210r-719,0r0,-283"},"8":{"d":"934,-440v0,-146,-77,-228,-221,-228v-144,-1,-224,83,-224,228v0,145,80,228,224,227v143,0,221,-82,221,-227xm125,-420v0,-213,124,-325,307,-375v-162,-49,-274,-147,-274,-338v0,-126,47,-222,141,-288v94,-66,232,-99,414,-99v181,0,318,32,412,98v94,66,141,162,141,289v0,191,-113,290,-275,338v183,50,307,161,307,375v0,148,-50,260,-148,336v-98,76,-244,113,-437,113v-194,0,-340,-37,-439,-113v-99,-76,-149,-188,-149,-336xm713,-1278v-120,0,-191,66,-191,184v0,119,70,185,191,185v119,0,188,-66,188,-185v0,-119,-69,-184,-188,-184"},"9":{"d":"594,29v-149,0,-273,-23,-389,-62r0,-276v106,49,207,86,342,86v243,0,361,-143,381,-379v-83,61,-178,98,-312,100v-296,4,-510,-194,-510,-485v0,-327,240,-531,576,-531v195,0,345,66,452,197v107,131,160,317,160,557v0,247,-62,441,-187,582v-125,141,-296,211,-513,211xm477,-1014v0,160,55,262,203,262v147,0,204,-102,203,-262v0,-159,-56,-262,-203,-262v-147,0,-204,103,-203,262"},":":{"d":"229,-1120r361,0r0,387r-361,0r0,-387xm229,-387r361,0r0,387r-361,0r0,-387","w":819},";":{"d":"229,-387r361,0r0,305r-248,373r-213,0r100,-373r0,-305xm229,-1120r361,0r0,387r-361,0r0,-387","w":819},"<":{"d":"1499,-973r-964,332r964,330r0,250r-1282,-463r0,-236r1282,-463r0,250","w":1716},"=":{"d":"217,-987r1282,0r0,235r-1282,0r0,-235xm217,-532r1282,0r0,237r-1282,0r0,-237","w":1716},">":{"d":"217,-973r0,-250r1282,463r0,236r-1282,463r0,-250r965,-330","w":1716},"?":{"d":"141,-1438v137,-47,256,-82,414,-82v163,0,287,34,372,100v85,66,128,163,128,290v0,65,-14,124,-39,176v-33,69,-126,161,-197,223v-46,40,-75,74,-89,99v-21,36,-22,76,-21,128r-361,0v-2,-78,6,-138,33,-194v26,-53,135,-160,203,-220v39,-34,66,-67,84,-98v18,-31,26,-61,26,-92v0,-99,-76,-152,-182,-149v-146,4,-262,63,-371,133r0,-314xm348,-356r361,0r0,356r-361,0r0,-356","w":1188},"@":{"d":"1024,-801v-129,0,-193,119,-193,262v0,147,62,265,195,265v131,0,195,-120,195,-265v0,-145,-65,-262,-197,-262xm1903,-655v0,383,-255,586,-662,571r0,-154v-37,90,-129,150,-252,150v-237,0,-387,-200,-387,-449v0,-249,150,-450,387,-450v123,0,216,61,252,151r0,-131r209,0r0,693v169,-25,268,-177,266,-377v-1,-148,-47,-259,-117,-348v-115,-147,-303,-254,-546,-254v-323,0,-532,159,-649,373v-99,180,-109,419,-28,616v69,171,211,312,384,380v86,34,178,52,276,52v185,-1,364,-79,467,-174r107,162v-146,114,-338,200,-572,200v-277,0,-489,-107,-641,-256v-154,-150,-262,-362,-262,-643v0,-272,113,-490,262,-637v149,-147,370,-260,641,-260v325,0,564,135,713,332v89,118,152,263,152,453","w":2048},"A":{"d":"1094,-272r-602,0r-95,272r-387,0r553,-1493r459,0r553,1493r-387,0xm588,-549r409,0r-204,-594","w":1585},"B":{"d":"971,-1073v0,-108,-71,-159,-185,-158r-213,0r0,316r213,0v115,0,185,-48,185,-158xm1032,-459v0,-138,-87,-194,-233,-194r-226,0r0,391r226,0v146,0,233,-57,233,-197xm1356,-1098v-1,156,-79,254,-199,299v157,44,260,176,260,371v0,144,-49,251,-146,322v-97,71,-245,106,-444,106r-639,0r0,-1493r578,0v207,0,357,31,450,94v93,63,140,163,140,301","w":1561},"C":{"d":"942,-250v184,-1,305,-57,430,-141r0,309v-130,67,-277,109,-461,111v-485,5,-809,-296,-809,-774v0,-479,324,-780,809,-775v184,2,332,44,461,111r0,309v-125,-84,-245,-139,-430,-141v-283,-3,-442,202,-442,496v0,294,159,497,442,495","w":1503},"D":{"d":"1196,-748v0,-302,-177,-456,-485,-454r-138,0r0,911r138,0v308,1,485,-155,485,-457xm188,-1493r406,0v227,0,395,17,506,49v204,58,368,209,442,397v67,171,67,431,0,601v-74,190,-239,340,-444,398v-112,32,-280,48,-504,48r-406,0r0,-1493","w":1700},"E":{"d":"188,-1493r1039,0r0,291r-654,0r0,278r615,0r0,291r-615,0r0,342r676,0r0,291r-1061,0r0,-1493","w":1399},"F":{"d":"188,-1493r1039,0r0,291r-654,0r0,278r615,0r0,291r-615,0r0,633r-385,0r0,-1493","w":1399},"G":{"d":"961,-250v78,0,148,-9,204,-31r0,-290r-235,0r0,-258r600,0r0,718v-176,86,-375,137,-619,140v-485,5,-809,-296,-809,-774v0,-488,332,-780,830,-775v211,2,392,42,543,111r0,309v-145,-82,-296,-139,-496,-141v-309,-3,-479,183,-479,496v0,307,161,496,461,495","w":1681},"H":{"d":"188,-1493r385,0r0,569r568,0r0,-569r385,0r0,1493r-385,0r0,-633r-568,0r0,633r-385,0r0,-1493","w":1714},"I":{"d":"188,-1493r385,0r0,1493r-385,0r0,-1493","w":762},"J":{"d":"-55,119v164,0,244,-96,243,-264r0,-1348r385,0r0,1348v-2,385,-214,556,-610,555r-78,0r0,-291r60,0","w":762},"K":{"d":"188,-1493r385,0r0,545r555,-545r447,0r-719,707r793,786r-482,0r-594,-588r0,588r-385,0r0,-1493","w":1587},"L":{"d":"188,-1493r385,0r0,1202r676,0r0,291r-1061,0r0,-1493","w":1305},"M":{"d":"188,-1493r490,0r340,799r342,-799r489,0r0,1493r-364,0r0,-1092r-344,805r-244,0r-344,-805r0,1092r-365,0r0,-1493","w":2038},"N":{"d":"188,-1493r430,0r543,1024r0,-1024r365,0r0,1493r-430,0r-543,-1024r0,1024r-365,0r0,-1493","w":1714},"O":{"d":"870,-1241v-117,0,-208,43,-273,130v-65,87,-97,209,-97,366v0,157,32,278,97,365v65,87,156,130,273,130v118,0,209,-43,274,-130v65,-87,97,-208,97,-365v0,-157,-32,-279,-97,-366v-65,-87,-156,-130,-274,-130xm102,-745v0,-478,292,-775,768,-775v477,0,768,297,768,775v0,477,-291,774,-768,774v-476,0,-768,-297,-768,-774","w":1741},"P":{"d":"1417,-1006v-2,333,-236,491,-590,488r-254,0r0,518r-385,0r0,-1493r639,0v190,0,335,43,437,127v102,84,153,204,153,360xm1020,-1006v0,-138,-91,-208,-234,-208r-213,0r0,417r213,0v143,1,234,-71,234,-209","w":1501},"Q":{"d":"1638,-745v-2,353,-163,595,-417,708r301,336r-367,0r-244,-272v-509,14,-809,-278,-809,-772v0,-478,292,-775,768,-775v482,0,771,291,768,775xm870,-1241v-117,0,-208,43,-273,130v-65,87,-97,209,-97,366v0,160,32,282,95,367v63,85,155,128,275,128v118,0,209,-43,274,-130v65,-87,97,-208,97,-365v0,-157,-32,-279,-97,-366v-65,-87,-156,-130,-274,-130","w":1741},"R":{"d":"961,-1024v0,-146,-73,-190,-226,-190r-162,0r0,383r162,0v154,-1,226,-46,226,-193xm1346,-1081v0,216,-110,328,-287,383v53,12,99,40,141,82v42,42,84,106,127,192r209,424r-410,0r-182,-371v-37,-75,-75,-124,-112,-153v-57,-45,-157,-42,-259,-41r0,565r-385,0r0,-1493r588,0v197,0,340,33,432,99v92,66,138,170,138,313","w":1577},"S":{"d":"705,-1520v189,1,358,30,522,74r0,316v-138,-62,-288,-111,-461,-111v-92,0,-160,13,-204,38v-44,25,-66,65,-66,118v0,40,15,70,44,93v56,44,225,70,326,91v166,34,284,84,354,152v70,68,105,165,105,290v0,353,-219,489,-594,488v-215,-1,-401,-44,-571,-107r0,-325v161,84,324,153,534,153v84,0,148,-14,193,-42v45,-28,67,-68,67,-120v0,-47,-17,-82,-46,-108v-49,-44,-228,-79,-330,-101v-149,-33,-259,-83,-328,-153v-69,-70,-103,-164,-103,-283v2,-316,223,-466,558,-463","w":1475},"T":{"d":"10,-1493r1376,0r0,291r-495,0r0,1202r-385,0r0,-1202r-496,0r0,-291","w":1397},"U":{"d":"831,29v-430,0,-642,-200,-643,-627r0,-895r385,0r0,895v0,123,21,211,61,264v40,53,106,80,197,80v206,0,259,-119,259,-344r0,-895r385,0r0,895v-1,427,-213,627,-644,627","w":1663},"V":{"d":"10,-1493r387,0r396,1102r395,-1102r387,0r-553,1493r-459,0","w":1585},"W":{"d":"61,-1493r369,0r258,1085r256,-1085r371,0r256,1085r258,-1085r366,0r-352,1493r-444,0r-271,-1135r-268,1135r-444,0","w":2259},"X":{"d":"1020,-762r518,762r-401,0r-349,-510r-346,510r-403,0r518,-762r-498,-731r402,0r327,481r326,-481r404,0","w":1579},"Y":{"d":"-20,-1493r421,0r340,532r340,-532r422,0r-569,864r0,629r-385,0r0,-629","w":1483},"Z":{"d":"115,-1493r1255,0r0,233r-801,969r824,0r0,291r-1301,0r0,-233r801,-969r-778,0r0,-291","w":1485},"[":{"d":"176,-1556r621,0r0,225r-281,0r0,1376r281,0r0,225r-621,0r0,-1826","w":936},"\\":{"d":"526,190r-526,-1683r221,0r527,1683r-222,0","w":748},"]":{"d":"760,270r-621,0r0,-225r281,0r0,-1376r-281,0r0,-225r621,0r0,1826","w":936},"^":{"d":"981,-1493r528,557r-241,0r-410,-301r-409,301r-242,0r528,-557r246,0","w":1716},"_":{"d":"1024,293r0,190r-1024,0r0,-190r1024,0","w":1024},"`":{"d":"377,-1638r282,376r-196,0r-369,-376r283,0","w":1024},"a":{"d":"621,-209v135,0,243,-116,239,-254r0,-41r-186,0v-130,0,-225,36,-225,150v0,95,71,145,172,145xm649,-1147v391,0,572,131,572,508r0,639r-361,0r0,-166v-89,124,-186,192,-381,195v-223,4,-391,-147,-391,-365v0,-131,46,-228,136,-289v90,-61,232,-92,425,-92r211,0v4,-75,-15,-122,-67,-153v-45,-26,-114,-39,-209,-39v-161,0,-290,33,-398,92r0,-273v143,-35,295,-57,463,-57","w":1382},"b":{"d":"768,-887v-171,0,-239,139,-238,328v0,106,21,187,62,243v41,56,99,85,176,85v77,0,133,-30,176,-84v78,-100,78,-388,0,-488v-43,-54,-99,-84,-176,-84xm901,29v-181,0,-283,-76,-371,-191r0,162r-358,0r0,-1556r358,0r0,600v88,-115,189,-191,371,-191v138,0,251,55,340,165v89,110,133,250,133,423v0,173,-44,313,-133,423v-89,110,-202,165,-340,165","w":1466},"c":{"d":"733,-1147v131,1,241,24,344,62r0,292v-85,-58,-173,-97,-299,-98v-202,-2,-317,128,-317,332v0,205,115,333,317,332v125,-1,222,-40,299,-99r0,293v-102,38,-214,61,-344,62v-389,4,-645,-210,-645,-588v0,-378,257,-592,645,-588","w":1214},"d":{"d":"565,-1147v180,0,281,76,369,191r0,-600r360,0r0,1556r-360,0r0,-162v-89,117,-186,191,-369,191v-138,0,-251,-55,-340,-165v-89,-110,-133,-250,-133,-423v0,-173,44,-313,133,-423v89,-110,202,-165,340,-165xm698,-231v77,0,133,-30,176,-84v78,-100,78,-388,0,-488v-43,-54,-99,-84,-176,-84v-76,0,-131,30,-174,84v-78,100,-78,388,0,488v43,54,98,84,174,84","w":1466},"e":{"d":"709,-1147v348,0,586,235,581,584r0,102r-837,0v17,168,123,254,309,252v187,-2,335,-59,475,-135r0,276v-152,57,-315,96,-508,97v-391,4,-641,-207,-641,-588v0,-369,245,-588,621,-588xm922,-682v2,-131,-86,-229,-215,-227v-147,1,-232,90,-250,227r465,0","w":1389},"f":{"d":"217,-1198v2,-258,147,-358,418,-358r274,0r0,235r-198,0v-99,1,-134,27,-136,123r0,78r306,0r0,256r-306,0r0,864r-358,0r0,-864r-178,0r0,-256r178,0r0,-78","w":891},"g":{"d":"594,205v230,0,338,-93,340,-318r0,-77v-89,116,-187,190,-369,190v-137,0,-250,-54,-339,-162v-89,-108,-134,-244,-134,-411v0,-167,45,-304,134,-411v89,-107,202,-161,339,-161v182,0,281,75,369,191r0,-166r360,0r0,1007v-2,382,-261,558,-665,555v-154,-1,-278,-24,-400,-65r0,-279v108,62,216,107,365,107xm934,-573v0,-181,-72,-314,-236,-314v-163,0,-235,134,-235,314v0,186,65,313,235,313v164,0,236,-134,236,-313","w":1466},"h":{"d":"903,-1147v272,0,395,179,395,465r0,682r-360,0r0,-520v0,-98,-2,-165,-6,-202v-8,-75,-32,-108,-80,-136v-24,-14,-51,-19,-82,-19v-165,2,-240,144,-240,326r0,551r-358,0r0,-1556r358,0r0,600v94,-112,195,-191,373,-191","w":1458},"i":{"d":"172,-1120r358,0r0,1120r-358,0r0,-1120xm172,-1556r358,0r0,292r-358,0r0,-292","w":702},"j":{"d":"-6,207v153,-4,178,-60,178,-227r0,-1100r358,0r0,1100v2,290,-140,462,-421,462r-177,0r0,-235r62,0xm172,-1556r358,0r0,292r-358,0r0,-292","w":702},"k":{"d":"172,-1556r358,0r0,847r412,-411r416,0r-547,514r590,606r-434,0r-437,-467r0,467r-358,0r0,-1556","w":1362},"l":{"d":"172,-1556r358,0r0,1556r-358,0r0,-1556","w":702},"m":{"d":"870,-1147v167,0,286,90,340,213v78,-120,191,-213,367,-213v271,0,395,180,395,465r0,682r-360,0r0,-584v7,-153,-1,-293,-146,-293v-68,0,-121,28,-158,84v-37,56,-57,137,-57,243r0,550r-360,0r0,-584v0,-124,-11,-204,-32,-240v-21,-36,-59,-53,-114,-53v-69,0,-122,29,-159,85v-37,56,-56,136,-56,241r0,551r-360,0r0,-1120r360,0r0,164v76,-110,177,-191,340,-191","w":2134},"n":{"d":"903,-1147v272,0,395,179,395,465r0,682r-360,0r0,-522v0,-97,-2,-163,-6,-200v-8,-75,-32,-108,-80,-136v-24,-14,-51,-19,-82,-19v-165,2,-240,144,-240,326r0,551r-358,0r0,-1120r358,0r0,164v94,-112,195,-191,373,-191","w":1458},"o":{"d":"705,-227v174,0,242,-140,241,-332v0,-107,-21,-190,-62,-247v-41,-57,-101,-85,-179,-85v-176,0,-245,139,-244,332v0,107,21,190,63,247v42,57,102,85,181,85xm88,-559v0,-371,240,-588,617,-588v376,0,614,217,614,588v0,371,-238,588,-614,588v-377,0,-617,-217,-617,-588","w":1407},"p":{"d":"901,29v-181,0,-283,-76,-371,-191r0,588r-358,0r0,-1546r358,0r0,164v88,-115,189,-191,371,-191v138,0,251,55,340,165v89,110,133,250,133,423v0,173,-44,313,-133,423v-89,110,-202,165,-340,165xm768,-887v-171,0,-239,139,-238,328v0,106,21,187,62,243v41,56,99,85,176,85v77,0,133,-30,176,-84v78,-100,78,-388,0,-488v-43,-54,-99,-84,-176,-84","w":1466},"q":{"d":"698,-887v-76,0,-131,30,-174,84v-78,100,-78,388,0,488v43,54,98,84,174,84v77,0,133,-30,176,-84v78,-100,78,-388,0,-488v-43,-54,-99,-84,-176,-84xm565,-1145v182,0,281,75,369,191r0,-166r360,0r0,1546r-360,0r0,-588v-89,117,-186,191,-369,191v-138,0,-251,-55,-340,-165v-89,-110,-133,-250,-133,-423v0,-173,44,-314,133,-423v89,-109,202,-163,340,-163","w":1466},"r":{"d":"530,-936v88,-139,198,-220,412,-210v14,1,34,4,61,7r1,324v-55,-26,-114,-43,-187,-43v-195,0,-287,136,-287,342r0,516r-358,0r0,-1120r358,0r0,184","w":1010},"s":{"d":"602,-1147v161,0,298,25,445,62r0,272v-129,-54,-265,-96,-424,-96v-68,0,-117,10,-151,25v-58,27,-66,110,-12,145v31,20,132,34,197,43v183,23,307,62,370,115v63,53,95,137,95,251v0,119,-44,209,-132,269v-88,60,-219,90,-394,90v-171,-1,-326,-29,-473,-70r0,-272v128,63,272,103,448,104v70,0,123,-10,158,-29v35,-19,53,-48,53,-86v0,-32,-13,-55,-36,-72v-27,-20,-139,-36,-209,-44v-159,-20,-271,-57,-335,-111v-64,-54,-96,-136,-96,-246v0,-119,41,-207,122,-264v81,-57,206,-86,374,-86","w":1219},"t":{"d":"594,0v-286,-3,-389,-103,-389,-389r0,-475r-178,0r0,-256r178,0r0,-318r358,0r0,318r369,0r0,256r-369,0r0,475v3,113,36,133,154,133r184,0r0,256r-307,0","w":979},"u":{"d":"557,29v-272,0,-397,-179,-397,-465r0,-684r360,0r-2,524v0,90,2,154,7,194v8,79,31,112,81,141v23,13,51,19,82,19v165,-2,240,-143,240,-325r0,-553r358,0r0,1120r-358,0r0,-162v-94,112,-194,191,-371,191","w":1458},"v":{"d":"31,-1120r358,0r279,774r278,-774r359,0r-441,1120r-393,0","w":1335},"w":{"d":"72,-1120r348,0r188,772r189,-772r299,0r188,764r189,-764r348,0r-295,1120r-391,0r-189,-770r-188,770r-391,0","w":1892},"x":{"d":"455,-573r-404,-547r379,0r229,332r232,-332r379,0r-404,545r424,575r-379,0r-252,-354r-249,354r-379,0","w":1321},"y":{"d":"25,-1120r358,0r301,760r256,-760r358,0r-471,1226v-47,125,-102,212,-165,262v-63,50,-147,74,-250,74r-207,0r0,-235v87,0,200,4,245,-29v33,-24,59,-80,74,-135","w":1335},"z":{"d":"117,-1120r977,0r0,250r-590,614r590,0r0,256r-1002,0r0,-250r590,-614r-565,0r0,-256","w":1192},"{":{"d":"907,-121v5,195,32,225,226,230r69,0r0,225r-217,0v-280,-1,-415,-99,-418,-369r0,-192v-3,-199,-54,-264,-250,-267r-61,0r0,-223r61,0v196,-3,250,-67,250,-266r0,-205v3,-270,138,-367,418,-368r217,0r0,225r-69,0v-193,5,-221,35,-226,229r0,166v-2,202,-43,285,-200,324v157,41,198,122,200,325r0,166","w":1458},"|":{"d":"487,-1565r0,2048r-227,0r0,-2048r227,0","w":748},"}":{"d":"891,-35v-3,270,-138,368,-418,369r-217,0r0,-225r70,0v193,-5,220,-36,225,-230r0,-166v2,-203,44,-283,201,-325v-158,-39,-199,-122,-201,-324r0,-166v-5,-193,-32,-224,-225,-229r-70,0r0,-225r217,0v280,1,415,98,418,368r0,205v3,199,54,263,250,266r61,0r0,223r-61,0v-196,3,-247,68,-250,267r0,192","w":1458},"~":{"d":"1499,-850r0,244v-71,53,-136,90,-195,114v-163,66,-323,23,-480,-41v-175,-71,-267,-88,-423,-23v-58,24,-119,67,-184,122r0,-244v71,-53,137,-90,196,-114v163,-66,322,-23,479,41v174,70,265,87,420,23v57,-24,118,-65,187,-122","w":1716},"\u00a0":{},"\u00a1":{"d":"287,0r0,-573r51,-418r258,0r51,418r0,573r-360,0xm287,-1137r0,-356r360,0r0,356r-360,0","w":934},"\u00a2":{"d":"702,-858v-100,56,-155,148,-155,299v0,151,54,245,155,299r0,-598xm174,-575v0,-346,206,-529,528,-570r0,-287r162,0r1,287v110,5,204,27,296,60r0,292v-87,-54,-173,-98,-297,-98r0,663v125,-2,226,-39,297,-98r0,293v-95,33,-187,61,-297,62r0,284r-162,0r0,-288v-331,-49,-528,-236,-528,-600"},"\u00a3":{"d":"881,-1520v134,0,253,21,362,54r0,286v-83,-47,-177,-77,-295,-77v-164,0,-231,87,-231,256r0,170r373,0r0,239r-373,0r0,326r538,0r0,266r-1130,0r0,-266r227,0r0,-326r-194,0r0,-239r194,0r0,-170v2,-365,162,-519,529,-519"},"\u00a4":{"d":"653,-213v-88,0,-156,-22,-219,-55r-207,207r-153,-154r207,-207v-35,-61,-56,-128,-56,-219v0,-90,23,-160,60,-217r-209,-205r153,-154r207,207v59,-37,127,-59,217,-59v87,0,153,23,219,55r207,-207r152,154r-207,207v34,64,57,133,57,219v0,91,-22,156,-59,215r207,207r-154,153r-207,-206v-58,38,-124,59,-215,59xm434,-641v0,121,98,219,219,219v119,0,219,-100,219,-219v0,-120,-99,-219,-219,-219v-119,0,-219,100,-219,219","w":1303},"\u00a5":{"d":"1358,-416r-455,0r0,416r-381,0r0,-416r-454,0r0,-194r454,0r0,-66r-49,-86r-405,0r0,-192r292,0r-335,-539r399,0r289,461r288,-461r400,0r-336,539r293,0r0,192r-406,0r-49,86r0,66r455,0r0,194"},"\u00a6":{"d":"487,-1432r0,758r-227,0r0,-758r227,0xm487,-408r0,758r-227,0r0,-758r227,0","w":748},"\u00a7":{"d":"528,-1520v130,1,248,24,357,58r0,227v-104,-40,-200,-75,-314,-78v-86,-2,-151,22,-151,96v0,45,62,95,188,146v139,56,275,130,328,191v52,59,80,129,80,212v0,177,-91,267,-230,324v88,47,152,110,152,227v0,97,-40,173,-121,229v-81,56,-192,83,-334,83v-135,0,-250,-25,-368,-58r0,-237v117,41,233,80,354,84v73,3,143,-28,143,-90v0,-47,-59,-97,-180,-144v-139,-55,-281,-132,-338,-198v-52,-61,-80,-133,-80,-220v0,-164,94,-250,224,-309v-85,-60,-140,-113,-140,-237v0,-96,38,-171,114,-225v76,-54,182,-81,316,-81xm604,-471v73,-26,135,-70,135,-154v0,-45,-23,-85,-69,-120v-46,-35,-125,-72,-236,-111v-45,19,-80,41,-102,66v-55,64,-39,153,28,204v42,32,123,71,244,115","w":1024},"\u00a8":{"d":"197,-1585r235,0r0,246r-235,0r0,-246xm592,-1585r235,0r0,246r-235,0r0,-246","w":1024},"\u00a9":{"d":"1065,-1169v99,1,182,15,258,43r0,215v-65,-42,-131,-71,-225,-72v-150,-2,-240,92,-240,242v0,152,89,242,240,241v93,0,169,-28,225,-71r0,213v-77,26,-163,44,-258,45v-270,4,-465,-165,-465,-428v0,-264,195,-431,465,-428xm1248,-1288v-136,-56,-313,-57,-449,0v-136,57,-264,187,-321,322v-57,135,-57,315,0,450v57,135,183,263,320,319v136,56,317,57,452,1v135,-56,264,-186,320,-320v57,-135,57,-315,0,-450v-57,-135,-187,-266,-322,-322xm740,-1430v172,-72,396,-72,568,0v171,72,332,232,403,404v70,171,71,397,0,568v-71,171,-232,332,-403,403v-172,72,-396,72,-568,0v-171,-72,-332,-232,-403,-403v-71,-171,-70,-397,0,-568v71,-172,232,-332,403,-404","w":2048},"\u00aa":{"d":"176,-573r813,0r0,200r-813,0r0,-200xm530,-858v123,0,213,-91,203,-223v-95,-1,-233,2,-275,26v-34,19,-52,47,-52,88v0,70,51,110,124,109xm561,-1520v278,0,440,95,440,355r0,448r-245,0r0,-127v-67,91,-146,146,-289,148v-178,2,-308,-84,-309,-250v0,-94,35,-163,105,-207v70,-44,180,-66,331,-66r137,0v6,-104,-68,-135,-174,-135v-129,0,-236,27,-332,70r0,-180v106,-32,214,-56,336,-56","w":1155},"\u00ab":{"d":"651,-1063r0,242r-293,221r293,221r0,242r-493,-369r0,-186xm1130,-1063r0,242r-292,221r292,221r0,242r-493,-369r0,-186","w":1323},"\u00ac":{"d":"217,-909r1282,0r0,622r-235,0r0,-385r-1047,0r0,-237","w":1716},"\u00ad":{"d":"111,-735r628,0r0,291r-628,0r0,-291","w":850},"\u00ae":{"d":"1248,-1288v-136,-56,-313,-57,-449,0v-136,57,-264,187,-321,322v-57,135,-57,315,0,450v57,135,183,263,320,319v136,56,317,57,452,1v135,-56,264,-186,320,-320v57,-135,57,-315,0,-450v-57,-135,-187,-266,-322,-322xm1124,-934v0,-92,-87,-105,-192,-102r0,207v104,4,192,-14,192,-105xm1354,-934v-1,125,-85,196,-201,215v62,34,107,91,141,160r111,221r-229,0r-107,-213v-25,-52,-47,-90,-67,-111v-24,-25,-38,-34,-70,-32r0,356r-213,0r0,-836r285,0v117,0,205,20,263,60v58,40,87,99,87,180xm740,-1430v172,-72,396,-72,568,0v171,72,332,232,403,404v70,171,71,397,0,568v-71,171,-232,332,-403,403v-172,72,-396,72,-568,0v-171,-72,-332,-232,-403,-403v-71,-171,-70,-397,0,-568v71,-172,232,-332,403,-404","w":2048},"\u00af":{"d":"197,-1556r630,0r0,188r-630,0r0,-188","w":1024},"\u00b0":{"d":"684,-1200v0,-93,-80,-172,-172,-172v-94,0,-172,78,-172,172v0,94,77,170,172,170v93,0,172,-77,172,-170xm178,-1200v0,-226,231,-404,461,-308v115,48,205,150,205,308v0,156,-90,259,-204,306v-231,95,-462,-78,-462,-306","w":1024},"\u00b1":{"d":"977,-1284r0,354r522,0r0,236r-522,0r0,354r-238,0r0,-354r-522,0r0,-236r522,0r0,-354r238,0xm217,-238r1282,0r0,238r-1282,0r0,-238","w":1716},"\u00b2":{"d":"115,-1466v167,-56,438,-89,573,10v60,44,90,102,90,176v0,48,-12,92,-36,132v-24,40,-69,90,-136,147r-194,165r370,0r0,168r-673,0r0,-153r313,-266v41,-35,70,-66,87,-93v17,-27,26,-53,26,-80v0,-69,-59,-114,-132,-112v-114,4,-197,42,-288,92r0,-186","w":897},"\u00b3":{"d":"764,-1303v-2,104,-76,163,-172,183v110,20,194,89,194,209v0,86,-33,150,-99,193v-66,43,-166,65,-300,65v-112,0,-210,-17,-297,-45r0,-174v75,40,154,73,254,73v63,0,111,-12,147,-32v70,-39,67,-146,-1,-185v-46,-26,-152,-33,-242,-31r0,-137v124,-2,272,13,272,-98v0,-73,-70,-90,-158,-90v-90,0,-168,23,-245,53r0,-166v226,-56,651,-79,647,182","w":897},"\u00b4":{"d":"647,-1638r283,0r-369,376r-196,0","w":1024},"\u00b5":{"d":"743,29v-101,0,-169,-32,-208,-95r0,494r-361,0r0,-1548r361,0r0,651v0,148,60,229,202,229v143,0,203,-80,203,-229r0,-651r360,0r0,749v2,79,7,127,72,127v30,0,48,-8,70,-22r0,250v-61,26,-116,45,-191,45v-133,0,-194,-57,-237,-158v-56,94,-135,158,-271,158","w":1507},"\u00b6":{"d":"129,-1071v-2,-260,204,-422,475,-422r520,0r0,1690r-190,0r0,-1543r-189,0r0,1543r-190,0r0,-846v-136,-17,-241,-62,-315,-135v-74,-73,-111,-168,-111,-287","w":1303},"\u00b7":{"d":"209,-905r360,0r0,387r-360,0r0,-387","w":778},"\u00b8":{"d":"428,254v68,1,121,-26,123,-86v0,-17,-7,-40,-21,-67v-14,-27,-37,-61,-67,-101r139,0v39,41,68,80,86,115v18,35,27,69,27,100v-3,140,-96,186,-250,186v-72,0,-140,-10,-202,-26r-1,-152v55,17,106,30,166,31","w":1024},"\u00b9":{"d":"141,-825r207,0r0,-521r-225,52r0,-160r229,-49r226,0r0,678r204,0r0,157r-641,0r0,-157","w":897},"\u00ba":{"d":"117,-1108v0,-261,190,-412,461,-412v270,0,460,151,460,412v0,261,-189,410,-460,410v-271,0,-461,-149,-461,-410xm166,-573r823,0r0,200r-823,0r0,-200xm752,-1108v0,-138,-50,-242,-174,-242v-124,0,-175,104,-175,242v0,139,50,240,175,240v124,0,174,-102,174,-240","w":1155},"\u00bb":{"d":"672,-1063r493,371r0,186r-493,369r0,-242r293,-221r-293,-221r0,-242xm193,-1063r491,371r0,186r-491,369r0,-242r292,-221r-292,-221r0,-242","w":1323},"\u00bc":{"d":"1593,-641r-239,324r239,0r0,-324xm1575,-836r248,0r0,519r137,0r0,155r-137,0r0,162r-230,0r0,-162r-391,0r0,-168xm733,29r-223,0r934,-1549r223,0xm119,-825r205,0r0,-521r-224,52r0,-160r230,-49r223,0r0,678r205,0r0,157r-639,0r0,-157","w":2120},"\u00bd":{"d":"1354,-799v167,-56,438,-86,572,11v60,42,89,100,89,174v0,48,-13,93,-37,134v-24,41,-69,90,-135,146r-194,166r372,0r0,168r-675,0r0,-154r315,-268v41,-35,70,-66,87,-92v17,-26,26,-52,26,-78v0,-70,-60,-115,-134,-113v-115,4,-194,42,-286,93r0,-187xm733,29r-223,0r934,-1549r223,0xm119,-825r205,0r0,-521r-224,52r0,-160r230,-49r223,0r0,678r205,0r0,157r-639,0r0,-157","w":2120},"\u00be":{"d":"1575,-836r248,0r0,519r137,0r0,155r-137,0r0,162r-230,0r0,-162r-391,0r0,-168xm1593,-641r-239,324r239,0r0,-324xm778,-1303v-2,104,-76,163,-172,183v111,20,195,89,195,209v0,86,-33,150,-99,193v-66,43,-167,65,-301,65v-112,0,-210,-17,-297,-45r0,-174v75,40,154,73,254,73v63,0,111,-12,147,-32v70,-39,66,-146,-1,-185v-45,-26,-152,-33,-242,-31r0,-137v124,-1,273,13,273,-98v0,-73,-71,-90,-158,-90v-92,0,-167,23,-246,53r0,-166v226,-56,651,-79,647,182xm733,29r-223,0r934,-1549r223,0","w":2120},"\u00bf":{"d":"1055,-53v-135,47,-258,82,-414,82v-163,0,-287,-33,-372,-99v-85,-66,-128,-163,-128,-290v0,-66,14,-124,39,-176v33,-70,126,-162,197,-224v46,-40,75,-74,89,-99v21,-37,22,-75,21,-128r361,0v2,78,-6,138,-32,193v-25,52,-138,159,-206,221v-60,54,-108,101,-108,190v0,99,76,153,182,150v146,-4,263,-64,371,-134r0,314xm848,-1137r-361,0r0,-356r361,0r0,356","w":1188},"\u00c0":{"d":"1094,-272r-602,0r-95,272r-387,0r553,-1493r459,0r553,1493r-387,0xm588,-549r409,0r-204,-594xm717,-1899r198,264r-196,0r-285,-264r283,0","w":1585},"\u00c1":{"d":"1094,-272r-602,0r-95,272r-387,0r553,-1493r459,0r553,1493r-387,0xm588,-549r409,0r-204,-594xm819,-1899r283,0r-285,264r-196,0","w":1585},"\u00c2":{"d":"1094,-272r-602,0r-95,272r-387,0r553,-1493r459,0r553,1493r-387,0xm588,-549r409,0r-204,-594xm614,-1899r308,0r223,264r-178,0r-199,-161r-199,161r-178,0","w":1585},"\u00c3":{"d":"1094,-272r-602,0r-95,272r-387,0r553,-1493r459,0r553,1493r-387,0xm588,-549r409,0r-204,-594xm1114,-1870v5,156,-109,271,-267,224v-67,-20,-140,-105,-216,-105v-51,0,-74,56,-72,116r-139,0r2,-30v-6,-156,111,-274,268,-223v63,21,116,71,176,96v73,29,117,-30,111,-109r139,0","w":1585},"\u00c4":{"d":"1094,-272r-602,0r-95,272r-387,0r553,-1493r459,0r553,1493r-387,0xm588,-549r409,0r-204,-594xm453,-1899r235,0r0,246r-235,0r0,-246xm848,-1899r235,0r0,246r-235,0r0,-246","w":1585},"\u00c5":{"d":"1077,-1616v-1,65,-15,115,-45,152r543,1464r-387,0r-94,-272r-602,0r-95,272r-387,0r543,-1464v-28,-41,-44,-88,-45,-152v-3,-152,132,-285,285,-285v151,0,287,134,284,285xm793,-1747v-70,0,-131,61,-131,131v0,70,61,131,131,131v70,0,131,-61,131,-131v0,-70,-62,-131,-131,-131xm588,-549r409,0r-204,-594","w":1585},"\u00c6":{"d":"891,-1237r-256,610r377,0r0,-610r-121,0xm625,-1493r1425,0r0,291r-653,0r0,278r614,0r0,291r-614,0r0,342r676,0r0,291r-1061,0r0,-350r-494,0r-147,350r-371,0","w":2222},"\u00c7":{"d":"799,254v68,1,121,-26,123,-86v0,-17,-8,-40,-22,-67v-14,-27,-36,-61,-66,-101r139,0v39,41,67,80,85,115v18,35,28,69,28,100v-3,140,-96,186,-250,186v-72,0,-140,-10,-202,-26r-1,-152v55,17,106,30,166,31xm942,-250v184,-1,305,-57,430,-141r0,309v-130,67,-277,109,-461,111v-485,5,-809,-296,-809,-774v0,-479,324,-780,809,-775v184,2,332,44,461,111r0,309v-125,-84,-245,-139,-430,-141v-283,-3,-442,202,-442,496v0,294,159,497,442,495","w":1503},"\u00c8":{"d":"188,-1493r1039,0r0,291r-654,0r0,278r615,0r0,291r-615,0r0,342r676,0r0,291r-1061,0r0,-1493xm641,-1899r198,264r-196,0r-285,-264r283,0","w":1399},"\u00c9":{"d":"188,-1493r1039,0r0,291r-654,0r0,278r615,0r0,291r-615,0r0,342r676,0r0,291r-1061,0r0,-1493xm743,-1899r283,0r-285,264r-196,0","w":1399},"\u00ca":{"d":"188,-1493r1039,0r0,291r-654,0r0,278r615,0r0,291r-615,0r0,342r676,0r0,291r-1061,0r0,-1493xm538,-1899r308,0r223,264r-178,0r-199,-161r-199,161r-178,0","w":1399},"\u00cb":{"d":"188,-1493r1039,0r0,291r-654,0r0,278r615,0r0,291r-615,0r0,342r676,0r0,291r-1061,0r0,-1493xm377,-1899r235,0r0,246r-235,0r0,-246xm772,-1899r235,0r0,246r-235,0r0,-246","w":1399},"\u00cc":{"d":"188,-1493r385,0r0,1493r-385,0r0,-1493xm305,-1899r198,264r-196,0r-285,-264r283,0","w":762},"\u00cd":{"d":"188,-1493r385,0r0,1493r-385,0r0,-1493xm407,-1899r283,0r-285,264r-196,0","w":762},"\u00ce":{"d":"188,-1493r385,0r0,1493r-385,0r0,-1493xm202,-1899r308,0r223,264r-178,0r-199,-161r-199,161r-178,0","w":762},"\u00cf":{"d":"188,-1493r385,0r0,1493r-385,0r0,-1493xm41,-1899r235,0r0,246r-235,0r0,-246xm436,-1899r235,0r0,246r-235,0r0,-246","w":762},"\u00d0":{"d":"1214,-748v0,-302,-177,-456,-485,-454r-137,0r0,321r235,0r0,260r-235,0r0,330r137,0v308,1,485,-155,485,-457xm207,-1493r405,0v227,0,396,17,507,49v203,58,366,208,441,397v68,171,67,431,0,601v-75,190,-239,340,-444,398v-112,32,-280,48,-504,48r-405,0r0,-621r-174,0r0,-260r174,0r0,-612","w":1716},"\u00d1":{"d":"188,-1493r430,0r543,1024r0,-1024r365,0r0,1493r-430,0r-543,-1024r0,1024r-365,0r0,-1493xm1167,-1870v7,157,-108,270,-267,224v-67,-20,-140,-105,-216,-105v-51,0,-74,56,-72,116r-139,0r2,-30v-7,-157,111,-274,268,-223v63,20,116,71,175,96v72,30,116,-30,112,-109r139,0","w":1714},"\u00d2":{"d":"870,-1241v-117,0,-208,43,-273,130v-65,87,-97,209,-97,366v0,157,32,278,97,365v65,87,156,130,273,130v118,0,209,-43,274,-130v65,-87,97,-208,97,-365v0,-157,-32,-279,-97,-366v-65,-87,-156,-130,-274,-130xm102,-745v0,-478,292,-775,768,-775v477,0,768,297,768,775v0,477,-291,774,-768,774v-476,0,-768,-297,-768,-774xm795,-1899r198,264r-196,0r-285,-264r283,0","w":1741},"\u00d3":{"d":"870,-1241v-117,0,-208,43,-273,130v-65,87,-97,209,-97,366v0,157,32,278,97,365v65,87,156,130,273,130v118,0,209,-43,274,-130v65,-87,97,-208,97,-365v0,-157,-32,-279,-97,-366v-65,-87,-156,-130,-274,-130xm102,-745v0,-478,292,-775,768,-775v477,0,768,297,768,775v0,477,-291,774,-768,774v-476,0,-768,-297,-768,-774xm897,-1899r283,0r-285,264r-196,0","w":1741},"\u00d4":{"d":"870,-1241v-117,0,-208,43,-273,130v-65,87,-97,209,-97,366v0,157,32,278,97,365v65,87,156,130,273,130v118,0,209,-43,274,-130v65,-87,97,-208,97,-365v0,-157,-32,-279,-97,-366v-65,-87,-156,-130,-274,-130xm102,-745v0,-478,292,-775,768,-775v477,0,768,297,768,775v0,477,-291,774,-768,774v-476,0,-768,-297,-768,-774xm692,-1899r308,0r223,264r-178,0r-199,-161r-199,161r-178,0","w":1741},"\u00d5":{"d":"870,-1241v-117,0,-208,43,-273,130v-65,87,-97,209,-97,366v0,157,32,278,97,365v65,87,156,130,273,130v118,0,209,-43,274,-130v65,-87,97,-208,97,-365v0,-157,-32,-279,-97,-366v-65,-87,-156,-130,-274,-130xm102,-745v0,-478,292,-775,768,-775v477,0,768,297,768,775v0,477,-291,774,-768,774v-476,0,-768,-297,-768,-774xm1192,-1870v5,156,-109,271,-267,224v-67,-20,-140,-105,-216,-105v-51,0,-74,56,-72,116r-139,0r2,-30v-6,-156,111,-274,268,-223v63,21,116,71,176,96v73,29,117,-30,111,-109r139,0","w":1741},"\u00d6":{"d":"870,-1241v-117,0,-208,43,-273,130v-65,87,-97,209,-97,366v0,157,32,278,97,365v65,87,156,130,273,130v118,0,209,-43,274,-130v65,-87,97,-208,97,-365v0,-157,-32,-279,-97,-366v-65,-87,-156,-130,-274,-130xm102,-745v0,-478,292,-775,768,-775v477,0,768,297,768,775v0,477,-291,774,-768,774v-476,0,-768,-297,-768,-774xm531,-1899r235,0r0,246r-235,0r0,-246xm926,-1899r235,0r0,246r-235,0r0,-246","w":1741},"\u00d7":{"d":"1460,-1075r-434,434r434,432r-168,168r-434,-432r-434,432r-168,-168r434,-432r-434,-434r168,-168r434,434r434,-434","w":1716},"\u00d8":{"d":"604,-371v63,75,140,121,266,121v118,0,206,-46,274,-130v98,-122,124,-408,66,-599xm1133,-1126v-62,-70,-141,-115,-263,-115v-117,0,-206,46,-273,130v-96,121,-123,396,-69,589xm870,29v-217,-2,-383,-59,-510,-158r-202,203r-113,-113r205,-205v-94,-127,-146,-288,-148,-501v-4,-478,292,-778,768,-775v218,2,375,54,504,152r199,-199r113,115r-201,199v98,125,151,292,153,508v3,477,-291,777,-768,774","w":1741},"\u00d9":{"d":"831,29v-430,0,-642,-200,-643,-627r0,-895r385,0r0,895v0,123,21,211,61,264v40,53,106,80,197,80v206,0,259,-119,259,-344r0,-895r385,0r0,895v-1,427,-213,627,-644,627xm756,-1899r198,264r-196,0r-285,-264r283,0","w":1663},"\u00da":{"d":"831,29v-430,0,-642,-200,-643,-627r0,-895r385,0r0,895v0,123,21,211,61,264v40,53,106,80,197,80v206,0,259,-119,259,-344r0,-895r385,0r0,895v-1,427,-213,627,-644,627xm858,-1899r283,0r-285,264r-196,0","w":1663},"\u00db":{"d":"831,29v-430,0,-642,-200,-643,-627r0,-895r385,0r0,895v0,123,21,211,61,264v40,53,106,80,197,80v206,0,259,-119,259,-344r0,-895r385,0r0,895v-1,427,-213,627,-644,627xm653,-1899r308,0r223,264r-178,0r-199,-161r-199,161r-178,0","w":1663},"\u00dc":{"d":"831,29v-430,0,-642,-200,-643,-627r0,-895r385,0r0,895v0,123,21,211,61,264v40,53,106,80,197,80v206,0,259,-119,259,-344r0,-895r385,0r0,895v-1,427,-213,627,-644,627xm492,-1899r235,0r0,246r-235,0r0,-246xm887,-1899r235,0r0,246r-235,0r0,-246","w":1663},"\u00dd":{"d":"-20,-1493r421,0r340,532r340,-532r422,0r-569,864r0,629r-385,0r0,-629xm768,-1899r283,0r-285,264r-196,0","w":1483},"\u00de":{"d":"1417,-745v-2,332,-237,491,-590,487r-254,0r0,258r-385,0r0,-1493r385,0r0,260r254,0v190,0,335,43,437,127v102,84,153,204,153,361xm1020,-745v0,-139,-91,-211,-234,-211r-213,0r0,419r213,0v142,1,234,-71,234,-208","w":1511},"\u00df":{"d":"733,-1319v-138,0,-203,78,-203,219r0,1100r-358,0r0,-1114v4,-318,204,-442,543,-442v328,0,527,133,530,442r0,71v-101,7,-174,24,-223,49v-68,35,-96,116,-48,178v20,26,132,88,187,118v136,74,223,165,223,350v0,270,-172,378,-460,377v-102,-1,-191,-21,-277,-49r0,-244v65,31,139,54,225,55v88,2,160,-48,160,-129v0,-31,-11,-57,-28,-81v-22,-31,-135,-95,-195,-128v-103,-58,-172,-133,-172,-274v0,-77,23,-142,69,-195v46,-53,118,-96,215,-129v-1,-115,-69,-175,-188,-174","w":1473},"\u00e0":{"d":"563,-1638r282,376r-196,0r-369,-376r283,0xm621,-209v135,0,243,-116,239,-254r0,-41r-186,0v-130,0,-225,36,-225,150v0,95,71,145,172,145xm649,-1147v391,0,572,131,572,508r0,639r-361,0r0,-166v-89,124,-186,192,-381,195v-223,4,-391,-147,-391,-365v0,-131,46,-228,136,-289v90,-61,232,-92,425,-92r211,0v4,-75,-15,-122,-67,-153v-45,-26,-114,-39,-209,-39v-161,0,-290,33,-398,92r0,-273v143,-35,295,-57,463,-57","w":1382},"\u00e1":{"d":"833,-1638r283,0r-369,376r-196,0xm621,-209v135,0,243,-116,239,-254r0,-41r-186,0v-130,0,-225,36,-225,150v0,95,71,145,172,145xm649,-1147v391,0,572,131,572,508r0,639r-361,0r0,-166v-89,124,-186,192,-381,195v-223,4,-391,-147,-391,-365v0,-131,46,-228,136,-289v90,-61,232,-92,425,-92r211,0v4,-75,-15,-122,-67,-153v-45,-26,-114,-39,-209,-39v-161,0,-290,33,-398,92r0,-273v143,-35,295,-57,463,-57","w":1382},"\u00e2":{"d":"577,-1638r242,0r256,376r-178,0r-199,-225r-199,225r-178,0xm621,-209v135,0,243,-116,239,-254r0,-41r-186,0v-130,0,-225,36,-225,150v0,95,71,145,172,145xm649,-1147v391,0,572,131,572,508r0,639r-361,0r0,-166v-89,124,-186,192,-381,195v-223,4,-391,-147,-391,-365v0,-131,46,-228,136,-289v90,-61,232,-92,425,-92r211,0v4,-75,-15,-122,-67,-153v-45,-26,-114,-39,-209,-39v-161,0,-290,33,-398,92r0,-273v143,-35,295,-57,463,-57","w":1382},"\u00e3":{"d":"798,-1470v74,32,114,-38,109,-121r139,0v0,91,-18,160,-52,210v-45,67,-127,91,-214,62v-43,-14,-102,-61,-145,-88v-32,-20,-55,-31,-72,-31v-59,2,-75,59,-74,129r-139,0v0,-91,18,-160,52,-210v46,-68,128,-92,216,-61v61,22,120,84,180,110xm621,-209v135,0,243,-116,239,-254r0,-41r-186,0v-130,0,-225,36,-225,150v0,95,71,145,172,145xm649,-1147v391,0,572,131,572,508r0,639r-361,0r0,-166v-89,124,-186,192,-381,195v-223,4,-391,-147,-391,-365v0,-131,46,-228,136,-289v90,-61,232,-92,425,-92r211,0v4,-75,-15,-122,-67,-153v-45,-26,-114,-39,-209,-39v-161,0,-290,33,-398,92r0,-273v143,-35,295,-57,463,-57","w":1382},"\u00e4":{"d":"383,-1585r235,0r0,246r-235,0r0,-246xm778,-1585r235,0r0,246r-235,0r0,-246xm621,-209v135,0,243,-116,239,-254r0,-41r-186,0v-130,0,-225,36,-225,150v0,95,71,145,172,145xm649,-1147v391,0,572,131,572,508r0,639r-361,0r0,-166v-89,124,-186,192,-381,195v-223,4,-391,-147,-391,-365v0,-131,46,-228,136,-289v90,-61,232,-92,425,-92r211,0v4,-75,-15,-122,-67,-153v-45,-26,-114,-39,-209,-39v-161,0,-290,33,-398,92r0,-273v143,-35,295,-57,463,-57","w":1382},"\u00e5":{"d":"621,-209v135,0,243,-116,239,-254r0,-41r-186,0v-130,0,-225,36,-225,150v0,95,71,145,172,145xm649,-1147v391,0,572,131,572,508r0,639r-361,0r0,-166v-89,124,-186,192,-381,195v-223,4,-391,-147,-391,-365v0,-131,46,-228,136,-289v90,-61,232,-92,425,-92r211,0v4,-75,-15,-122,-67,-153v-45,-26,-114,-39,-209,-39v-161,0,-290,33,-398,92r0,-273v143,-35,295,-57,463,-57xm829,-1534v0,-70,-61,-131,-131,-131v-71,0,-131,60,-131,131v0,71,60,131,131,131v71,0,131,-60,131,-131xm698,-1249v-153,0,-285,-132,-285,-285v0,-153,132,-285,285,-285v153,0,285,132,285,285v0,153,-132,285,-285,285","w":1382},"\u00e6":{"d":"1679,-682v2,-131,-86,-229,-215,-227v-147,1,-229,91,-247,227r462,0xm621,-209v135,0,243,-116,239,-254r0,-41r-186,0v-130,0,-225,36,-225,150v0,95,71,145,172,145xm584,-909v-161,0,-290,33,-398,92r0,-273v138,-33,285,-57,439,-57v200,0,343,50,438,156v94,-95,225,-154,403,-156v349,-4,587,234,582,584r0,102r-838,0v19,168,122,254,310,252v187,-2,335,-59,475,-135r0,276v-152,57,-316,96,-508,97v-234,1,-419,-72,-516,-207v-120,125,-245,203,-463,207v-244,4,-421,-132,-420,-365v0,-131,46,-228,136,-289v90,-61,232,-92,425,-92r211,0v4,-75,-15,-122,-67,-153v-45,-26,-114,-39,-209,-39","w":2146},"\u00e7":{"d":"612,254v68,1,121,-26,123,-86v0,-17,-7,-40,-21,-67v-14,-27,-37,-61,-67,-101r139,0v39,41,68,80,86,115v18,35,27,69,27,100v-3,140,-96,186,-250,186v-72,0,-140,-10,-202,-26r-1,-152v55,17,106,30,166,31xm733,-1147v131,1,241,24,344,62r0,292v-85,-58,-173,-97,-299,-98v-202,-2,-317,128,-317,332v0,205,115,333,317,332v125,-1,222,-40,299,-99r0,293v-102,38,-214,61,-344,62v-389,4,-645,-210,-645,-588v0,-378,257,-592,645,-588","w":1214},"\u00e8":{"d":"594,-1638r282,376r-196,0r-369,-376r283,0xm709,-1147v348,0,586,235,581,584r0,102r-837,0v17,168,123,254,309,252v187,-2,335,-59,475,-135r0,276v-152,57,-315,96,-508,97v-391,4,-641,-207,-641,-588v0,-369,245,-588,621,-588xm922,-682v2,-131,-86,-229,-215,-227v-147,1,-232,90,-250,227r465,0","w":1389},"\u00e9":{"d":"864,-1638r283,0r-369,376r-196,0xm709,-1147v348,0,586,235,581,584r0,102r-837,0v17,168,123,254,309,252v187,-2,335,-59,475,-135r0,276v-152,57,-315,96,-508,97v-391,4,-641,-207,-641,-588v0,-369,245,-588,621,-588xm922,-682v2,-131,-86,-229,-215,-227v-147,1,-232,90,-250,227r465,0","w":1389},"\u00ea":{"d":"608,-1638r242,0r256,376r-178,0r-199,-225r-199,225r-178,0xm709,-1147v348,0,586,235,581,584r0,102r-837,0v17,168,123,254,309,252v187,-2,335,-59,475,-135r0,276v-152,57,-315,96,-508,97v-391,4,-641,-207,-641,-588v0,-369,245,-588,621,-588xm922,-682v2,-131,-86,-229,-215,-227v-147,1,-232,90,-250,227r465,0","w":1389},"\u00eb":{"d":"414,-1585r235,0r0,246r-235,0r0,-246xm809,-1585r235,0r0,246r-235,0r0,-246xm709,-1147v348,0,586,235,581,584r0,102r-837,0v17,168,123,254,309,252v187,-2,335,-59,475,-135r0,276v-152,57,-315,96,-508,97v-391,4,-641,-207,-641,-588v0,-369,245,-588,621,-588xm922,-682v2,-131,-86,-229,-215,-227v-147,1,-232,90,-250,227r465,0","w":1389},"\u00ec":{"d":"240,-1638r282,376r-196,0r-369,-376r283,0xm172,-1120r358,0r0,1120r-358,0r0,-1120","w":702},"\u00ed":{"d":"510,-1638r283,0r-369,376r-196,0xm172,-1120r358,0r0,1120r-358,0r0,-1120","w":702},"\u00ee":{"d":"254,-1638r242,0r256,376r-178,0r-199,-225r-199,225r-178,0xm172,-1120r358,0r0,1120r-358,0r0,-1120","w":702},"\u00ef":{"d":"60,-1585r235,0r0,246r-235,0r0,-246xm455,-1585r235,0r0,246r-235,0r0,-246xm172,-1120r358,0r0,1120r-358,0r0,-1120","w":702},"\u00f0":{"d":"705,-227v174,0,242,-140,241,-332v0,-67,-10,-127,-26,-184v-63,-31,-131,-53,-215,-54v-157,-1,-244,96,-244,254v0,180,79,316,244,316xm88,-559v0,-319,232,-501,565,-496v64,0,113,9,160,27r-190,-219r-373,119r-37,-129r307,-97r-188,-202r352,0r111,116r376,-114r35,129r-315,96r205,229v78,91,135,178,170,264v35,86,53,178,53,277v2,371,-238,588,-614,588v-377,0,-617,-217,-617,-588","w":1407},"\u00f1":{"d":"854,-1470v74,32,114,-38,109,-121r139,0v0,91,-18,160,-52,210v-45,67,-127,91,-214,62v-43,-14,-102,-61,-145,-88v-32,-20,-55,-31,-72,-31v-59,2,-75,59,-74,129r-139,0v0,-91,18,-160,52,-210v46,-68,128,-92,216,-61v61,22,120,84,180,110xm903,-1147v272,0,395,179,395,465r0,682r-360,0r0,-522v0,-97,-2,-163,-6,-200v-8,-75,-32,-108,-80,-136v-24,-14,-51,-19,-82,-19v-165,2,-240,144,-240,326r0,551r-358,0r0,-1120r358,0r0,164v94,-112,195,-191,373,-191","w":1458},"\u00f2":{"d":"592,-1638r282,376r-196,0r-369,-376r283,0xm705,-227v174,0,242,-140,241,-332v0,-107,-21,-190,-62,-247v-41,-57,-101,-85,-179,-85v-176,0,-245,139,-244,332v0,107,21,190,63,247v42,57,102,85,181,85xm88,-559v0,-371,240,-588,617,-588v376,0,614,217,614,588v0,371,-238,588,-614,588v-377,0,-617,-217,-617,-588","w":1407},"\u00f3":{"d":"862,-1638r283,0r-369,376r-196,0xm705,-227v174,0,242,-140,241,-332v0,-107,-21,-190,-62,-247v-41,-57,-101,-85,-179,-85v-176,0,-245,139,-244,332v0,107,21,190,63,247v42,57,102,85,181,85xm88,-559v0,-371,240,-588,617,-588v376,0,614,217,614,588v0,371,-238,588,-614,588v-377,0,-617,-217,-617,-588","w":1407},"\u00f4":{"d":"606,-1638r242,0r256,376r-178,0r-199,-225r-199,225r-178,0xm705,-227v174,0,242,-140,241,-332v0,-107,-21,-190,-62,-247v-41,-57,-101,-85,-179,-85v-176,0,-245,139,-244,332v0,107,21,190,63,247v42,57,102,85,181,85xm88,-559v0,-371,240,-588,617,-588v376,0,614,217,614,588v0,371,-238,588,-614,588v-377,0,-617,-217,-617,-588","w":1407},"\u00f5":{"d":"826,-1470v74,32,115,-38,110,-121r139,0v0,91,-17,160,-51,210v-45,67,-127,91,-214,62v-43,-14,-103,-61,-146,-88v-32,-20,-55,-31,-72,-31v-59,2,-75,59,-74,129r-139,0v0,-91,17,-160,51,-210v46,-68,130,-92,218,-61v61,22,118,84,178,110xm705,-227v174,0,242,-140,241,-332v0,-107,-21,-190,-62,-247v-41,-57,-101,-85,-179,-85v-176,0,-245,139,-244,332v0,107,21,190,63,247v42,57,102,85,181,85xm88,-559v0,-371,240,-588,617,-588v376,0,614,217,614,588v0,371,-238,588,-614,588v-377,0,-617,-217,-617,-588","w":1407},"\u00f6":{"d":"412,-1585r235,0r0,246r-235,0r0,-246xm807,-1585r235,0r0,246r-235,0r0,-246xm705,-227v174,0,242,-140,241,-332v0,-107,-21,-190,-62,-247v-41,-57,-101,-85,-179,-85v-176,0,-245,139,-244,332v0,107,21,190,63,247v42,57,102,85,181,85xm88,-559v0,-371,240,-588,617,-588v376,0,614,217,614,588v0,371,-238,588,-614,588v-377,0,-617,-217,-617,-588","w":1407},"\u00f7":{"d":"705,-395r307,0r0,309r-307,0r0,-309xm705,-1198r307,0r0,309r-307,0r0,-309xm217,-760r1282,0r0,236r-1282,0r0,-236","w":1716},"\u00f8":{"d":"705,-891v-199,0,-262,185,-241,405v2,22,6,42,11,60r381,-410v-36,-35,-83,-55,-151,-55xm705,-227v198,0,258,-190,237,-409v-2,-22,-5,-43,-10,-62r-385,411v38,37,88,59,158,60xm705,29v-151,-1,-269,-33,-367,-90r-148,155r-112,-94r145,-158v-84,-98,-134,-226,-135,-401v-2,-371,240,-591,617,-588v148,1,264,32,360,88r147,-158r109,101r-141,149v88,100,138,228,139,408v2,371,-238,591,-614,588","w":1407},"\u00f9":{"d":"619,-1638r282,376r-196,0r-369,-376r283,0xm557,29v-272,0,-397,-179,-397,-465r0,-684r360,0r-2,524v0,90,2,154,7,194v8,79,31,112,81,141v23,13,51,19,82,19v165,-2,240,-143,240,-325r0,-553r358,0r0,1120r-358,0r0,-162v-94,112,-194,191,-371,191","w":1458},"\u00fa":{"d":"889,-1638r283,0r-369,376r-196,0xm557,29v-272,0,-397,-179,-397,-465r0,-684r360,0r-2,524v0,90,2,154,7,194v8,79,31,112,81,141v23,13,51,19,82,19v165,-2,240,-143,240,-325r0,-553r358,0r0,1120r-358,0r0,-162v-94,112,-194,191,-371,191","w":1458},"\u00fb":{"d":"633,-1638r242,0r256,376r-178,0r-199,-225r-199,225r-178,0xm557,29v-272,0,-397,-179,-397,-465r0,-684r360,0r-2,524v0,90,2,154,7,194v8,79,31,112,81,141v23,13,51,19,82,19v165,-2,240,-143,240,-325r0,-553r358,0r0,1120r-358,0r0,-162v-94,112,-194,191,-371,191","w":1458},"\u00fc":{"d":"439,-1585r235,0r0,246r-235,0r0,-246xm834,-1585r235,0r0,246r-235,0r0,-246xm557,29v-272,0,-397,-179,-397,-465r0,-684r360,0r-2,524v0,90,2,154,7,194v8,79,31,112,81,141v23,13,51,19,82,19v165,-2,240,-143,240,-325r0,-553r358,0r0,1120r-358,0r0,-162v-94,112,-194,191,-371,191","w":1458},"\u00fd":{"d":"803,-1638r283,0r-369,376r-196,0xm25,-1120r358,0r301,760r256,-760r358,0r-471,1226v-47,125,-102,212,-165,262v-63,50,-147,74,-250,74r-207,0r0,-235v87,0,200,4,245,-29v33,-24,59,-80,74,-135","w":1335},"\u00fe":{"d":"901,29v-181,0,-283,-76,-371,-191r0,588r-358,0r0,-1982r358,0r0,600v88,-115,189,-191,371,-191v138,0,251,55,340,165v89,110,133,250,133,423v0,173,-44,313,-133,423v-89,110,-202,165,-340,165xm768,-887v-171,0,-239,139,-238,328v0,106,21,187,62,243v41,56,99,85,176,85v77,0,133,-30,176,-84v78,-100,78,-388,0,-488v-43,-54,-99,-84,-176,-84","w":1466},"\u00ff":{"d":"353,-1585r235,0r0,246r-235,0r0,-246xm748,-1585r235,0r0,246r-235,0r0,-246xm25,-1120r358,0r301,760r256,-760r358,0r-471,1226v-47,125,-102,212,-165,262v-63,50,-147,74,-250,74r-207,0r0,-235v87,0,200,4,245,-29v33,-24,59,-80,74,-135","w":1335},"\u0152":{"d":"1180,-1202r-105,0v-193,0,-337,38,-432,113v-95,75,-143,189,-143,341v0,153,48,267,144,343v96,76,239,114,431,114r105,0r0,-911xm339,-1302v169,-139,430,-191,751,-191r1128,0r0,291r-653,0r0,278r614,0r0,291r-614,0r0,342r676,0r0,291r-1151,0v-320,13,-583,-52,-751,-192v-157,-130,-237,-315,-237,-556v0,-240,79,-424,237,-554","w":2390},"\u0153":{"d":"1774,-682v2,-131,-86,-229,-215,-227v-147,1,-232,90,-250,227r465,0xm1542,-1147v363,-4,603,224,600,584r0,102r-837,0v17,168,123,254,309,252v187,-2,335,-59,475,-135r0,276v-151,57,-317,97,-508,97v-219,0,-351,-50,-451,-168v-100,103,-235,166,-425,168v-377,4,-617,-217,-617,-588v0,-371,240,-592,617,-588v195,1,320,61,421,168v103,-108,218,-166,416,-168xm705,-227v174,0,242,-140,241,-332v0,-107,-21,-190,-62,-247v-41,-57,-101,-85,-179,-85v-176,0,-245,139,-244,332v0,107,21,190,63,247v42,57,102,85,181,85","w":2241},"\u0178":{"d":"-20,-1493r421,0r340,532r340,-532r422,0r-569,864r0,629r-385,0r0,-629xm402,-1899r235,0r0,246r-235,0r0,-246xm797,-1899r235,0r0,246r-235,0r0,-246","w":1483},"\u02c6":{"d":"391,-1638r242,0r256,376r-178,0r-199,-225r-199,225r-178,0","w":1024},"\u02dc":{"d":"612,-1470v74,32,114,-38,109,-121r139,0v0,91,-18,160,-52,210v-45,67,-127,91,-214,62v-43,-14,-102,-61,-145,-88v-32,-20,-55,-31,-72,-31v-59,2,-75,59,-74,129r-139,0v0,-91,18,-160,52,-210v46,-68,128,-92,216,-61v61,22,120,84,180,110","w":1024},"\u2013":{"d":"0,-690r1024,0r0,258r-1024,0r0,-258","w":1024},"\u2014":{"d":"0,-690r2048,0r0,258r-2048,0r0,-258","w":2048},"\u2018":{"d":"551,-856r-340,0r0,-285r227,-352r213,0r-100,352r0,285","w":778},"\u2019":{"d":"229,-1493r340,0r0,285r-227,352r-213,0r100,-352r0,-285","w":778},"\u201a":{"d":"248,-387r340,0r0,285r-230,352r-211,0r101,-352r0,-285","w":778},"\u201c":{"d":"1057,-856r-340,0r0,-283r227,-354r213,0r-100,354r0,283xm551,-856r-340,0r0,-285r227,-352r213,0r-100,352r0,285","w":1346},"\u201d":{"d":"289,-1493r340,0r0,285r-228,352r-213,0r101,-352r0,-285xm795,-1493r340,0r0,287r-228,350r-213,0r101,-350r0,-287","w":1346},"\u201e":{"d":"248,-387r340,0r0,285r-230,352r-211,0r101,-352r0,-285xm754,-387r340,0r0,287r-228,350r-213,0r101,-350r0,-287","w":1346},"\u2022":{"d":"322,-622v-35,-86,-35,-193,0,-279v35,-86,110,-159,195,-193v86,-35,192,-36,277,1v124,53,220,162,220,331v0,170,-99,281,-222,334v-85,37,-191,36,-277,0v-86,-36,-157,-108,-193,-194","w":1309},"\u2026":{"d":"1526,-387r360,0r0,387r-360,0r0,-387xm162,-387r360,0r0,387r-360,0r0,-387xm844,-387r360,0r0,387r-360,0r0,-387","w":2048},"\u2039":{"d":"651,-1063r0,242r-293,221r293,221r0,242r-493,-369r0,-186","w":844},"\u203a":{"d":"193,-1063r493,371r0,186r-493,369r0,-242r292,-221r-292,-221r0,-242","w":844},"\u20ac":{"d":"924,-233v160,0,268,-69,364,-158r0,309v-115,66,-246,111,-414,111v-373,0,-607,-203,-696,-506r-217,0r88,-195r98,0r-2,-73r2,-76r-186,0r88,-195r129,0v93,-305,320,-504,696,-504v167,0,300,45,414,111r0,309v-93,-89,-205,-157,-364,-157v-185,0,-297,97,-351,241r539,0r-86,195r-493,0v-5,42,-3,100,-1,149r429,0r-89,195r-299,0v60,147,162,244,351,244"},"\u2122":{"d":"1153,-1493r119,227r119,-227r227,0r0,578r-170,0r0,-437r-137,256r-76,0r-137,-256r0,437r-172,0r0,-578r227,0xm813,-1493r0,143r-174,0r0,435r-172,0r0,-435r-172,0r0,-143r518,0","w":2048}}});
