/*!
 * The following copyright notice may not be removed under any circumstances.
 * 
 * Copyright:
 * Copyright (c) 2003 by Bitstream, Inc. All Rights Reserved.
 * 
 * Trademark:
 * Bitstream Vera is a trademark of Bitstream, Inc.
 * 
 * Manufacturer:
 * Bitstream Inc.
 * 
 * Vendor URL:
 * http://www.bitstream.com
 */
Cufon.registerFont({"w":1425,"face":{"font-family":"Bitstream Vera Sans","font-weight":700,"font-style":"oblique","font-stretch":"normal","units-per-em":"2048","panose-1":"2 11 8 3 3 3 4 11 2 4","ascent":"1556","descent":"-492","x-height":"29","bbox":"-340 -1901.05 2363 483","underline-thickness":"258","underline-position":"-98","slope":"-11","unicode-range":"U+0020-U+2122"},"glyphs":{" ":{"w":713},"!":{"d":"432,-1493r361,0r-113,573r-131,418r-258,0r28,-418xm211,-356r360,0r-69,356r-361,0","w":934},"\"":{"d":"872,-1493r0,555r-237,0r0,-555r237,0xm432,-1493r0,555r-237,0r0,-555r237,0","w":1067},"#":{"d":"1024,-872r-264,0r-70,274r264,0xm911,-1470r-96,385r264,0r97,-385r221,0r-97,385r297,0r-53,213r-297,0r-69,274r297,0r-54,215r-295,0r-96,383r-221,0r96,-383r-264,0r-96,383r-223,0r96,-383r-285,0r53,-215r281,0r70,-274r-283,0r53,-213r285,0r96,-385r223,0"},"$":{"d":"596,301r-162,0r59,-301v-169,-7,-313,-35,-438,-86r49,-262v119,68,260,114,433,120r61,-311v-140,-21,-242,-57,-306,-111v-64,-54,-95,-129,-95,-224v0,-133,49,-240,149,-322v100,-82,235,-125,405,-131r44,-229r161,0r-43,227v138,8,263,32,377,67r-49,254v-92,-53,-227,-83,-373,-91r-57,288v142,24,247,63,315,117v68,54,103,126,103,215v0,147,-51,262,-151,345v-100,83,-241,128,-424,134xm706,-1098v-97,8,-184,57,-184,150v0,76,55,101,133,112xm699,-227v118,-5,206,-54,206,-166v0,-83,-64,-106,-151,-119"},"%":{"d":"1688,-444v0,-101,-33,-172,-123,-172v-57,0,-104,28,-141,84v-37,56,-56,128,-56,217v0,104,30,174,123,174v58,0,105,-28,142,-84v37,-56,55,-129,55,-219xm1114,-285v0,-288,195,-499,479,-499v199,0,346,120,346,311v0,289,-194,502,-479,502v-199,0,-346,-122,-346,-314xm532,29r-245,0r1235,-1549r245,0xm113,-1018v0,-287,197,-502,481,-502v198,0,346,121,346,312v0,289,-196,501,-481,501v-199,0,-346,-119,-346,-311xm686,-1180v0,-100,-33,-172,-123,-172v-57,0,-104,28,-141,84v-37,56,-55,129,-55,217v0,104,29,177,122,177v58,0,105,-28,142,-85v37,-57,55,-130,55,-221","w":2052},"&":{"d":"944,-1278v-102,-1,-184,42,-186,133v0,25,10,58,30,97v20,39,50,83,89,133r297,374v87,-89,145,-208,180,-354r311,0v-59,239,-165,427,-322,573r256,322r-438,0r-84,-106v-138,79,-283,135,-477,135v-163,0,-295,-41,-394,-123v-99,-82,-149,-189,-149,-322v0,-101,31,-194,95,-278v64,-84,163,-164,297,-240v-31,-52,-51,-107,-52,-182v0,-117,51,-213,151,-290v137,-106,353,-135,576,-100v64,10,130,25,197,44r-53,278v-99,-54,-192,-91,-324,-94xm412,-483v-4,142,121,258,266,254v98,-2,170,-37,237,-84r-340,-430v-90,57,-160,135,-163,260","w":1786},"'":{"d":"432,-1493r0,555r-237,0r0,-555r237,0","w":627},"(":{"d":"496,-332v0,227,44,419,108,602r-291,0v-90,-193,-155,-391,-155,-643v0,-197,42,-393,127,-589v85,-196,212,-394,383,-592r290,0v-155,207,-272,412,-348,614v-76,202,-114,405,-114,608","w":936},")":{"d":"408,-954v0,-228,-43,-417,-109,-600r293,0v90,192,153,390,153,643v0,199,-43,397,-127,593v-84,196,-211,392,-380,588r-293,0v155,-207,271,-411,348,-614v77,-203,115,-406,115,-610","w":936},"*":{"d":"1030,-1217r-330,173r330,174r-76,141r-333,-184r0,344r-170,0r0,-344r-334,184r-76,-141r334,-174r-334,-173r76,-141r334,182r0,-344r170,0r0,344r333,-182","w":1071},"+":{"d":"977,-1284r0,524r522,0r0,236r-522,0r0,524r-238,0r0,-524r-522,0r0,-236r522,0r0,-524r238,0","w":1716},",":{"d":"164,-387r360,0r-59,305r-322,373r-213,0r174,-373","w":778},"-":{"d":"109,-735r628,0r-57,291r-629,0","w":850},".":{"d":"170,-387r360,0r-75,387r-361,0","w":778},"\/":{"d":"657,-1493r232,0r-854,1683r-232,0","w":748},"0":{"d":"446,-451v0,135,42,218,166,218v183,0,242,-168,287,-325v37,-131,78,-321,78,-482v0,-136,-39,-217,-164,-217v-126,0,-189,78,-235,180v-60,133,-101,322,-123,496v-6,51,-9,95,-9,130xm846,-1520v329,-1,508,202,506,537v-1,282,-88,544,-209,717v-121,173,-296,293,-563,295v-332,3,-510,-200,-506,-539v5,-425,170,-783,452,-935v95,-50,201,-75,320,-75"},"1":{"d":"141,-266r340,0r187,-965r-363,72r51,-262r361,-72r366,0r-237,1227r338,0r-51,266r-1045,0"},"2":{"d":"920,-1085v0,-117,-89,-173,-213,-172v-63,0,-134,12,-212,37v-78,25,-166,64,-264,116r64,-317v161,-59,327,-99,526,-99v152,0,272,32,359,98v87,66,131,156,131,269v0,97,-27,186,-80,266v-53,80,-171,188,-352,324r-373,280r649,0r-55,283r-1084,0r56,-285r635,-479v69,-53,123,-107,159,-162v36,-55,54,-108,54,-159"},"3":{"d":"1305,-1186v0,217,-143,343,-338,381v140,30,238,136,239,299v0,165,-65,296,-196,392v-131,96,-312,143,-541,143v-179,0,-335,-26,-469,-74r57,-297v106,63,248,108,404,109v113,0,201,-21,267,-63v66,-42,99,-100,99,-171v0,-59,-25,-103,-75,-133v-50,-30,-125,-45,-226,-45r-153,0r49,-248r162,0v105,0,187,-19,248,-57v61,-38,92,-89,92,-154v0,-51,-22,-89,-64,-116v-86,-53,-244,-47,-369,-18v-67,15,-136,36,-208,64r55,-282v143,-39,291,-63,459,-64v169,0,296,28,381,84v85,56,127,139,127,250"},"4":{"d":"844,-1165r-531,614r410,0xm834,-1493r438,0r-185,942r213,0r-53,279r-213,0r-53,272r-365,0r54,-272r-672,0r65,-330"},"5":{"d":"862,-532v-1,-138,-118,-212,-268,-209v-148,3,-267,39,-395,88r163,-840r957,0r-55,283r-650,0r-45,231v55,-15,119,-25,187,-25v282,-3,487,131,487,394v0,196,-66,351,-199,466v-133,115,-313,173,-540,173v-187,0,-336,-38,-477,-99r59,-303v127,81,248,136,428,140v197,4,349,-113,348,-299"},"6":{"d":"911,-539v0,-121,-55,-197,-170,-198v-163,0,-260,159,-260,336v0,114,60,188,170,188v159,1,260,-155,260,-326xm637,31v-342,0,-539,-207,-535,-553v5,-448,204,-783,520,-924v154,-69,355,-90,550,-56v59,11,119,27,180,48r-54,276v-99,-50,-197,-87,-329,-88v-255,-2,-411,150,-441,381v94,-61,194,-97,336,-100v234,-4,418,159,418,387v0,365,-277,629,-645,629"},"7":{"d":"295,-1493r1126,0r-45,219r-831,1274r-385,0r790,-1210r-708,0"},"8":{"d":"879,-487v0,-112,-77,-181,-191,-181v-152,0,-274,124,-274,275v0,112,76,180,190,180v155,0,275,-121,275,-274xm1001,-795v146,57,238,142,238,326v0,153,-59,275,-179,364v-120,89,-284,134,-493,134v-165,0,-293,-33,-385,-99v-92,-66,-137,-157,-137,-274v0,-106,35,-198,105,-278v70,-80,168,-138,292,-173v-126,-53,-215,-132,-215,-290v0,-135,56,-242,167,-319v111,-77,264,-116,460,-116v157,0,279,29,366,88v87,59,130,141,130,248v0,95,-30,176,-90,243v-60,67,-147,116,-259,146xm981,-1126v0,-93,-68,-152,-162,-152v-132,0,-225,86,-225,217v0,91,68,152,162,152v132,0,225,-86,225,-217"},"9":{"d":"801,-1518v342,0,538,207,534,553v-5,447,-206,780,-519,924v-206,95,-521,90,-732,8r53,-276v100,51,197,87,330,88v255,2,412,-149,440,-381v-93,61,-193,98,-334,100v-233,4,-417,-160,-417,-387v0,-365,277,-629,645,-629xm524,-948v0,121,55,197,170,198v163,0,260,-158,260,-335v0,-116,-56,-189,-168,-189v-158,-1,-262,156,-262,326"},":":{"d":"301,-1120r361,0r-74,387r-361,0xm160,-387r360,0r-76,387r-360,0","w":819},";":{"d":"160,-387r360,0r-59,305r-320,373r-213,0r172,-373xm301,-1120r361,0r-74,387r-361,0","w":819},"<":{"d":"1499,-973r-964,332r964,330r0,250r-1282,-463r0,-236r1282,-463r0,250","w":1716},"=":{"d":"217,-987r1282,0r0,235r-1282,0r0,-235xm217,-532r1282,0r0,237r-1282,0r0,-237","w":1716},">":{"d":"217,-973r0,-250r1282,463r0,236r-1282,463r0,-250r965,-330","w":1716},"?":{"d":"283,-356r360,0r-70,356r-360,0xm778,-1139v-1,-84,-66,-121,-157,-118v-151,4,-275,65,-396,133r62,-314v144,-47,269,-82,434,-82v129,0,231,29,304,86v73,57,110,135,110,234v0,79,-18,150,-53,213v-35,63,-96,128,-181,196v-56,44,-156,120,-185,161v-28,38,-36,75,-44,126r-361,0v10,-77,31,-137,67,-192v33,-51,168,-160,249,-222v53,-41,91,-79,115,-114v24,-35,36,-71,36,-107","w":1188},"@":{"d":"1188,-621v1,-108,-51,-180,-154,-180v-71,0,-131,35,-182,105v-51,70,-76,153,-76,250v-1,108,53,172,158,172v71,0,131,-33,180,-100v49,-67,74,-150,74,-247xm1157,-88v-13,0,-30,4,-41,0r31,-158v-53,90,-152,157,-285,158v-199,1,-307,-147,-307,-356v0,-147,47,-275,142,-382v95,-107,208,-161,339,-161v111,-1,204,65,228,153r24,-133r203,0r-133,693v203,-26,354,-256,354,-496v0,-142,-54,-258,-164,-348v-110,-90,-253,-135,-428,-135v-407,0,-675,230,-791,537v-33,88,-48,179,-48,274v0,348,247,616,591,610v188,-3,335,-75,453,-170r109,158v-165,110,-337,196,-574,196v-197,0,-365,-67,-483,-159v-173,-134,-285,-337,-285,-627v0,-268,101,-480,234,-641v174,-210,440,-365,794,-365v353,0,603,153,721,394v39,79,57,162,57,249v0,210,-68,381,-204,512v-136,131,-316,197,-537,197","w":2048},"A":{"d":"1006,-272r-596,0r-148,272r-395,0r844,-1493r440,0r264,1493r-366,0xm555,-543r401,0r-90,-575","w":1585},"B":{"d":"1038,-1110v-1,-86,-64,-122,-157,-121r-215,0r-62,316r215,0v131,2,219,-69,219,-195xm979,-506v0,-111,-77,-147,-199,-147r-227,0r-76,391r228,0v169,1,274,-81,274,-244xm1432,-1174v2,186,-118,340,-271,375v124,34,205,134,205,287v0,161,-60,286,-180,376v-120,90,-287,136,-504,136r-639,0r291,-1493r577,0v177,0,308,26,393,78v85,52,128,132,128,241","w":1561},"C":{"d":"477,-618v0,226,136,370,361,368v67,0,138,-12,214,-36v76,-24,161,-63,255,-115r-66,331v-157,56,-319,97,-506,99v-383,7,-664,-232,-661,-602v2,-267,92,-470,225,-627v156,-185,397,-320,713,-320v183,0,331,46,471,111r-62,309v-113,-85,-225,-141,-401,-141v-154,0,-283,59,-387,178v-104,119,-156,267,-156,445","w":1503},"D":{"d":"1206,-850v-1,-244,-152,-353,-407,-352r-135,0r-179,911r138,0v349,5,586,-215,583,-559xm334,-1493v263,2,660,-9,840,35v187,46,320,154,387,312v83,198,54,455,-35,644v-103,219,-288,389,-540,456v-116,31,-296,46,-537,46r-406,0","w":1700},"E":{"d":"334,-1493r1038,0r-57,291r-653,0r-54,278r615,0r-58,291r-614,0r-66,342r674,0r-55,291r-1061,0","w":1399},"F":{"d":"334,-1493r1038,0r-57,291r-653,0r-54,278r615,0r-58,291r-614,0r-123,633r-385,0","w":1399},"G":{"d":"479,-627v0,234,130,378,361,377v83,0,156,-11,225,-31r57,-290r-235,0r49,-258r598,0r-139,718v-183,89,-381,137,-639,140v-402,4,-684,-217,-682,-602v1,-270,91,-472,227,-629v171,-199,405,-318,754,-318v203,0,382,46,538,111r-59,309v-140,-81,-280,-138,-473,-141v-343,-6,-582,266,-582,614","w":1681},"H":{"d":"334,-1493r385,0r-111,569r568,0r110,-569r385,0r-291,1493r-385,0r123,-633r-567,0r-123,633r-385,0","w":1714},"I":{"d":"334,-1493r385,0r-291,1493r-385,0","w":762},"J":{"d":"334,-1493r385,0r-262,1348v-78,381,-273,551,-719,555r-78,0r57,-291v111,4,192,-10,255,-67v50,-45,83,-111,100,-197","w":762},"K":{"d":"334,-1493r385,0r-105,537r635,-537r465,0r-856,725r645,768r-452,0r-502,-623r-121,623r-385,0","w":1587},"L":{"d":"334,-1493r385,0r-234,1202r674,0r-55,291r-1061,0","w":1305},"M":{"d":"334,-1493r473,0r192,793r504,-793r492,0r-291,1493r-365,0r213,-1102r-518,815r-207,0r-206,-815r-213,1102r-365,0","w":2038},"N":{"d":"334,-1493r430,0r342,1034r201,-1034r364,0r-291,1493r-430,0r-342,-1034r-200,1034r-365,0","w":1714},"O":{"d":"479,-612v0,213,99,362,299,362v265,0,387,-185,450,-397v23,-76,32,-154,32,-234v1,-222,-98,-359,-310,-360v-133,0,-246,59,-336,179v-90,120,-135,270,-135,450xm733,29v-377,5,-662,-233,-659,-598v2,-268,88,-479,217,-637v160,-196,379,-309,715,-314v378,-5,664,234,661,598v-2,266,-89,479,-217,635v-162,197,-380,311,-717,316","w":1741},"P":{"d":"973,-1493v290,-3,500,135,500,406v0,175,-72,315,-170,407v-124,117,-276,161,-521,162r-254,0r-100,518r-385,0r291,-1493r639,0xm1077,-1047v-1,-114,-79,-167,-200,-167r-211,0r-82,417r213,0v174,1,280,-82,280,-250","w":1501},"Q":{"d":"1006,-1520v378,-5,661,234,661,598v0,209,-51,392,-153,550v-102,158,-243,273,-424,345r229,326r-367,0r-192,-272v-187,13,-342,-39,-453,-121v-131,-97,-233,-264,-233,-475v0,-267,89,-480,217,-637v162,-197,377,-309,715,-314xm479,-612v0,213,99,362,299,362v265,0,387,-185,450,-397v23,-76,32,-154,32,-234v1,-222,-98,-359,-310,-360v-133,0,-246,59,-336,179v-90,120,-135,270,-135,450","w":1741},"R":{"d":"1018,-1071v0,-110,-72,-143,-193,-143r-159,0r-76,383r162,0v168,1,266,-77,266,-240xm1403,-1130v0,241,-149,413,-371,432v52,11,95,38,130,80v35,42,65,107,91,194r127,424r-383,0r-112,-371v-23,-74,-51,-125,-83,-153v-32,-28,-79,-41,-140,-41r-123,0r-111,565r-385,0r291,-1493r569,0v164,0,288,31,373,92v85,61,127,152,127,271","w":1577},"S":{"d":"92,-403v151,86,302,153,506,153v88,0,159,-18,214,-54v55,-36,83,-82,83,-138v0,-37,-12,-66,-37,-86v-46,-40,-226,-77,-319,-101v-116,-29,-202,-74,-259,-136v-57,-62,-85,-142,-85,-241v0,-155,60,-280,179,-374v119,-94,279,-140,480,-140v184,1,351,30,508,74r-62,316v-130,-64,-268,-111,-438,-111v-96,0,-170,15,-224,45v-54,30,-81,72,-81,125v0,34,11,60,35,79v49,40,215,72,305,95v132,34,229,82,291,145v62,63,92,144,92,244v0,162,-61,292,-184,390v-123,98,-289,147,-496,147v-214,-1,-403,-43,-569,-107","w":1475},"T":{"d":"156,-1493r1376,0r-57,291r-496,0r-234,1202r-385,0r234,-1202r-496,0","w":1397},"U":{"d":"680,29v-357,0,-575,-164,-536,-523v3,-30,9,-65,16,-104r174,-895r385,0r-174,894v-11,52,-18,98,-19,150v0,133,73,195,209,195v93,0,165,-26,215,-78v50,-52,87,-141,111,-266r174,-895r385,0r-174,895v-43,220,-125,379,-246,478v-121,99,-295,149,-520,149","w":1663},"V":{"d":"156,-1493r366,0r183,1116r618,-1116r397,0r-843,1493r-459,0","w":1585},"W":{"d":"219,-1493r356,0r46,1085r469,-1085r366,0r49,1085r453,-1085r383,0r-643,1493r-436,0r-50,-1135r-483,1135r-446,0","w":2259},"X":{"d":"1016,-756r366,756r-391,0r-243,-500r-437,500r-415,0r671,-766r-354,-727r393,0r230,469r409,-469r418,0","w":1579},"Y":{"d":"129,-1493r385,0r254,553r444,-553r445,0r-737,870r-121,623r-385,0r121,-623","w":1483},"Z":{"d":"260,-1493r1256,0r-48,238r-968,964r805,0r-58,291r-1300,0r45,-238r971,-964r-760,0","w":1485},"[":{"d":"334,-1556r620,0r-45,225r-278,0r-269,1376r281,0r-45,225r-618,0","w":936},"\\":{"d":"344,190r-199,-1683r222,0r198,1683r-221,0","w":748},"]":{"d":"563,270r-620,0r43,-225r280,0r269,-1376r-281,0r43,-225r621,0","w":936},"^":{"d":"981,-1493r528,557r-241,0r-410,-301r-409,301r-242,0r528,-557r246,0","w":1716},"_":{"d":"1044,225r0,258r-1064,0r0,-258r1064,0","w":1024},"`":{"d":"551,-1638r209,376r-197,0r-295,-376r283,0","w":1024},"a":{"d":"403,-340v-2,85,63,132,152,131v177,-2,268,-128,291,-295v-198,0,-439,-23,-443,164xm381,29v-201,4,-347,-112,-346,-305v0,-143,55,-252,165,-328v110,-76,270,-113,478,-113r211,0v3,-20,7,-38,8,-59v0,-44,-21,-78,-63,-100v-89,-48,-281,-38,-400,-10v-69,15,-136,38,-201,69r54,-273v144,-36,298,-57,473,-57v166,0,289,28,370,85v98,68,135,184,116,336v-3,27,-7,56,-13,87r-125,639r-358,0r30,-166v-102,114,-212,191,-399,195","w":1382},"b":{"d":"1016,-678v1,-130,-60,-209,-185,-209v-92,0,-167,42,-225,127v-58,85,-88,196,-88,332v0,120,69,198,187,197v90,0,164,-41,223,-125v59,-84,88,-191,88,-322xm786,29v-171,0,-264,-72,-331,-191r-33,162r-359,0r302,-1556r360,0r-117,600v94,-111,193,-188,369,-191v257,-4,412,182,409,447v-2,191,-62,354,-149,473v-61,84,-129,148,-205,191v-76,43,-159,65,-246,65","w":1466},"c":{"d":"625,29v-328,3,-549,-146,-549,-455v0,-210,89,-380,203,-498v137,-142,311,-223,575,-223v127,0,236,25,336,62r-57,292v-81,-53,-166,-95,-279,-98v-233,-4,-397,182,-397,418v0,159,101,248,264,246v129,-1,234,-41,319,-99r-55,293v-108,38,-224,61,-360,62","w":1214},"d":{"d":"444,-440v-1,130,60,209,185,209v92,0,167,-42,225,-127v58,-85,86,-195,86,-332v0,-120,-66,-198,-184,-197v-91,0,-165,41,-224,125v-59,84,-88,191,-88,322xm674,-1147v172,0,264,72,332,191r116,-600r361,0r-303,1556r-361,0r33,-162v-94,111,-193,188,-369,191v-257,4,-412,-182,-409,-447v2,-191,62,-354,149,-473v61,-84,129,-148,205,-191v76,-43,159,-65,246,-65","w":1466},"e":{"d":"817,-1147v317,-4,534,198,489,531v-5,47,-20,107,-30,155r-838,0v-16,175,84,255,260,252v192,-4,349,-62,502,-135r-55,278v-159,58,-323,94,-524,95v-328,3,-547,-152,-547,-463v0,-196,77,-352,178,-469v127,-146,310,-242,565,-244xm950,-682v29,-129,-46,-230,-172,-227v-159,4,-246,95,-291,227r463,0","w":1389},"f":{"d":"1106,-1556r-47,235r-197,0v-104,1,-138,34,-157,122r-17,79r303,0r-49,256r-303,0r-168,864r-360,0r168,-864r-177,0r50,-256r176,0r16,-78v50,-247,194,-357,487,-358r275,0","w":891},"g":{"d":"94,98v99,62,201,107,344,107v249,0,358,-104,402,-318r16,-77v-57,65,-116,113,-175,144v-59,31,-124,46,-194,46v-260,1,-415,-188,-411,-457v2,-176,66,-326,149,-440v59,-81,126,-143,202,-185v76,-42,158,-63,245,-63v175,0,266,70,334,191r30,-166r361,0r-189,973v-77,394,-314,589,-776,589v-150,0,-274,-24,-391,-65xm940,-674v1,-132,-58,-212,-184,-213v-88,0,-162,40,-220,119v-58,79,-87,179,-87,299v-1,130,59,209,184,209v87,0,160,-39,219,-118v59,-79,88,-178,88,-296","w":1466},"h":{"d":"1016,-1147v226,0,350,144,318,380v-3,26,-7,54,-13,85r-133,682r-359,0r131,-680v25,-114,-19,-197,-129,-197v-74,0,-138,29,-191,87v-53,58,-89,137,-110,239r-108,551r-359,0r302,-1556r360,0r-117,600v66,-65,132,-113,199,-144v67,-31,136,-47,209,-47","w":1458},"i":{"d":"281,-1120r360,0r-219,1120r-359,0xm365,-1556r360,0r-57,292r-361,0","w":702},"j":{"d":"281,-1120r360,0r-215,1100v-31,157,-88,272,-172,348v-84,76,-196,114,-338,114r-178,0r45,-235v87,3,172,-4,211,-45v30,-32,55,-91,72,-182xm365,-1556r360,0r-57,292r-361,0","w":702},"k":{"d":"365,-1556r360,0r-164,843r483,-407r422,0r-651,518r473,602r-409,0r-363,-483r-94,483r-359,0","w":1362},"l":{"d":"365,-1556r360,0r-303,1556r-359,0","w":702},"m":{"d":"985,-1147v150,0,279,88,299,213v94,-117,225,-210,408,-213v218,-4,351,145,318,377v-3,26,-7,55,-13,88r-133,682r-361,0r116,-599v17,-83,26,-136,26,-159v1,-72,-45,-120,-117,-119v-69,0,-126,29,-174,85v-48,56,-82,136,-103,241r-108,551r-361,0r115,-584v14,-75,25,-113,27,-174v2,-74,-44,-120,-117,-119v-66,0,-123,29,-173,87v-50,58,-85,138,-104,239r-108,551r-359,0r218,-1120r360,0r-33,164v56,-63,116,-111,179,-143v63,-32,129,-48,198,-48","w":2134},"n":{"d":"1016,-1147v226,0,350,144,318,380v-3,26,-7,54,-13,85r-133,682r-359,0r131,-680v25,-114,-19,-197,-129,-197v-74,0,-138,29,-191,87v-53,58,-89,137,-110,239r-108,551r-359,0r218,-1120r360,0r-33,164v66,-65,132,-113,199,-144v67,-31,136,-47,209,-47","w":1458},"o":{"d":"958,-676v1,-134,-61,-215,-190,-215v-93,0,-169,42,-229,126v-60,84,-90,191,-90,321v-1,135,61,217,190,217v93,0,169,-43,229,-127v60,-84,90,-191,90,-322xm606,29v-313,4,-534,-172,-532,-473v1,-194,78,-351,178,-467v122,-142,299,-233,545,-236v316,-4,538,170,536,473v-1,195,-76,350,-176,465v-125,144,-300,235,-551,238","w":1407},"p":{"d":"786,29v-171,0,-264,-72,-331,-191r-115,588r-360,0r301,-1546r360,0r-33,164v94,-111,193,-188,369,-191v257,-4,412,182,409,447v-2,191,-62,354,-149,473v-61,84,-129,148,-205,191v-76,43,-159,65,-246,65xm1016,-678v1,-130,-60,-209,-185,-209v-92,0,-167,42,-225,127v-58,85,-88,196,-88,332v0,120,69,198,187,197v90,0,164,-41,223,-125v59,-84,88,-191,88,-322","w":1466},"q":{"d":"674,-1147v172,0,264,72,332,191r30,-164r361,0r-301,1546r-361,0r115,-588v-92,111,-192,188,-367,191v-257,4,-412,-182,-409,-447v2,-191,62,-354,149,-473v61,-84,129,-148,205,-191v76,-43,159,-65,246,-65xm444,-440v-1,130,60,209,185,209v92,0,167,-42,225,-127v58,-85,86,-195,86,-332v0,-120,-66,-198,-184,-197v-91,0,-165,41,-224,125v-59,84,-88,191,-88,322","w":1466},"r":{"d":"602,-928v96,-148,273,-247,514,-211r-63,324v-47,-27,-107,-43,-179,-43v-91,0,-168,29,-228,88v-60,59,-101,143,-122,254r-102,516r-359,0r218,-1120r360,0","w":1010},"s":{"d":"74,-324v117,69,261,114,434,115v75,0,131,-11,170,-27v60,-25,78,-98,25,-135v-25,-17,-134,-41,-197,-53v-128,-25,-219,-66,-274,-118v-55,-52,-82,-124,-82,-216v0,-125,48,-221,142,-288v94,-67,229,-101,404,-101v168,0,311,24,451,62r-53,278v-118,-56,-253,-102,-406,-102v-71,0,-125,10,-164,27v-58,26,-81,92,-25,127v26,16,130,38,191,50v145,29,246,71,304,119v58,48,87,115,87,201v0,130,-51,232,-153,305v-102,73,-245,109,-428,109v-175,-1,-332,-29,-480,-72","w":1219},"t":{"d":"492,0v-221,3,-356,-100,-329,-324v2,-21,5,-43,9,-65r92,-475r-176,0r49,-256r178,0r62,-318r360,0r-61,318r366,0r-51,256r-366,0r-97,501v-9,86,40,107,131,107r185,0r-51,256r-301,0","w":979},"u":{"d":"444,29v-226,5,-348,-145,-317,-384v3,-26,7,-53,12,-81r131,-684r359,0r-113,583v-12,58,-23,107,-24,160v-1,84,50,134,135,133v74,0,138,-29,191,-86v53,-57,90,-137,110,-239r108,-551r359,0r-217,1120r-361,0r33,-164v-105,109,-222,189,-406,193","w":1458},"v":{"d":"129,-1120r330,0r145,782r422,-782r363,0r-658,1120r-379,0","w":1335},"w":{"d":"178,-1120r330,0r39,770r338,-770r284,0r41,768r336,-768r352,0r-512,1120r-380,0r-37,-770r-342,770r-371,0","w":1892},"x":{"d":"453,-573r-297,-547r372,0r166,332r291,-332r389,0r-510,545r312,575r-373,0r-176,-354r-322,354r-389,0","w":1321},"y":{"d":"135,-1120r338,0r154,776r397,-776r383,0r-709,1226v-79,138,-153,229,-220,272v-67,43,-154,64,-261,64r-217,0r37,-235v91,0,196,4,249,-29v47,-29,89,-106,120,-164","w":1335},"z":{"d":"223,-1120r977,0r-49,250r-698,614r579,0r-49,256r-1001,0r47,-250r700,-614r-555,0","w":1192},"{":{"d":"692,-612v98,26,154,74,154,188v0,49,-8,91,-17,137r-32,166v-17,78,-29,165,25,204v31,23,144,28,225,26r-43,225r-218,0v-119,0,-210,-21,-270,-62v-73,-50,-99,-127,-86,-236v15,-124,59,-237,59,-370v0,-131,-64,-158,-208,-160r-64,0r45,-223v113,4,217,-10,268,-58v42,-40,76,-108,95,-208r39,-205v50,-255,190,-366,489,-368r217,0r-43,225r-70,0v-93,0,-157,14,-191,43v-34,29,-60,91,-79,186r-33,166v-39,192,-90,282,-262,324","w":1458},"|":{"d":"487,-1565r0,2048r-227,0r0,-2048r227,0","w":748},"}":{"d":"969,-877v0,131,67,158,209,160r63,0r-45,223v-113,-4,-217,9,-268,58v-42,40,-75,109,-94,209r-37,192v-50,254,-191,367,-490,369r-217,0r43,-225r70,0v93,0,157,-15,191,-45v34,-30,60,-91,79,-185r33,-166v39,-192,92,-282,264,-325v-117,-24,-171,-104,-152,-245v16,-117,60,-232,60,-355v0,-45,-14,-75,-40,-94v-31,-23,-144,-27,-224,-25r43,-225r219,0v119,0,208,20,268,61v74,50,100,132,86,243v-2,20,-5,41,-10,64r-39,205v-7,34,-12,70,-12,106","w":1458},"~":{"d":"1499,-850r0,244v-71,53,-136,90,-195,114v-163,66,-323,23,-480,-41v-175,-71,-267,-88,-423,-23v-58,24,-119,67,-184,122r0,-244v71,-53,137,-90,196,-114v163,-66,322,-23,479,41v174,70,265,87,420,23v57,-24,118,-65,187,-122","w":1716},"\u00a0":{},"\u00a1":{"d":"723,-1137r-361,0r70,-356r361,0xm502,0r-361,0r113,-573r131,-418r258,0r-29,418","w":934},"\u00a2":{"d":"741,-856v-128,54,-226,206,-225,383v0,100,41,176,109,209xm569,23v-248,-24,-431,-179,-432,-437v0,-194,61,-358,182,-492v121,-134,281,-212,478,-235r55,-291r162,0r-55,287v106,4,202,27,290,60r-57,292v-86,-56,-163,-96,-283,-98r-128,664v132,-4,233,-41,319,-99r-56,293v-93,32,-196,53,-313,60r-55,286r-162,0"},"\u00a3":{"d":"1360,-1180v-70,-44,-164,-77,-270,-77v-183,0,-258,92,-291,256r-33,170r373,0r-45,239r-375,0r-64,326r541,0r-51,266r-1131,0r52,-266r225,0r63,-326r-192,0r45,-239r194,0r33,-170v67,-343,239,-519,629,-519v132,0,248,20,352,54"},"\u00a4":{"d":"653,-213v-88,0,-156,-22,-219,-55r-207,207r-153,-154r207,-207v-35,-61,-56,-128,-56,-219v0,-90,23,-160,60,-217r-209,-205r153,-154r207,207v59,-37,127,-59,217,-59v87,0,153,23,219,55r207,-207r152,154r-207,207v34,64,57,133,57,219v0,91,-22,156,-59,215r207,207r-154,153r-207,-206v-58,38,-124,59,-215,59xm434,-641v0,121,98,219,219,219v119,0,219,-100,219,-219v0,-120,-99,-219,-219,-219v-119,0,-219,100,-219,219","w":1303},"\u00a5":{"d":"1294,-416r-454,0r-82,416r-381,0r82,-416r-447,0r39,-194r445,0r14,-76r-29,-76r-401,0r37,-192r291,0r-215,-539r368,0r195,500r385,-500r405,0r-440,539r293,0r-37,192r-408,0r-59,76r-18,76r454,0"},"\u00a6":{"d":"487,-1432r0,758r-227,0r0,-758r227,0xm487,-408r0,758r-227,0r0,-758r227,0","w":748},"\u00a7":{"d":"272,-977v-58,-47,-102,-98,-102,-186v0,-104,47,-189,138,-257v125,-93,329,-120,529,-86v57,10,116,25,175,44r-43,227v-98,-43,-181,-75,-295,-78v-91,-2,-171,34,-174,111v0,20,8,38,24,55v33,35,118,67,172,92v116,53,196,103,239,153v93,109,79,296,-13,405v-53,62,-126,114,-224,153v64,41,111,89,111,178v0,108,-48,194,-141,262v-126,92,-344,118,-551,84v-60,-10,-122,-24,-185,-43r48,-237v108,44,203,82,323,86v87,3,171,-37,174,-111v0,-21,-8,-39,-24,-55v-42,-39,-169,-89,-238,-121v-79,-36,-138,-78,-175,-127v-85,-110,-67,-287,18,-394v50,-63,120,-116,214,-155xm444,-854v-91,24,-165,73,-165,172v0,41,17,75,49,104v32,29,102,64,211,107v53,-18,95,-43,124,-73v62,-64,58,-152,-13,-208v-39,-30,-107,-65,-206,-102","w":1024},"\u00a8":{"d":"358,-1585r238,0r-49,246r-236,0xm756,-1585r235,0r-49,246r-235,0","w":1024},"\u00a9":{"d":"1065,-1169v99,1,182,15,258,43r0,215v-65,-42,-131,-71,-225,-72v-150,-2,-240,92,-240,242v0,152,89,242,240,241v93,0,169,-28,225,-71r0,213v-77,26,-163,44,-258,45v-270,4,-465,-165,-465,-428v0,-264,195,-431,465,-428xm1248,-1288v-136,-56,-313,-57,-449,0v-136,57,-264,187,-321,322v-57,135,-57,315,0,450v57,135,183,263,320,319v136,56,317,57,452,1v135,-56,264,-186,320,-320v57,-135,57,-315,0,-450v-57,-135,-187,-266,-322,-322xm740,-1430v172,-72,396,-72,568,0v171,72,332,232,403,404v70,171,71,397,0,568v-71,171,-232,332,-403,403v-172,72,-396,72,-568,0v-171,-72,-332,-232,-403,-403v-71,-171,-70,-397,0,-568v71,-172,232,-332,403,-404","w":2048},"\u00aa":{"d":"127,-573r815,0r-39,200r-815,0xm432,-954v0,62,49,97,115,96v127,-2,222,-102,235,-223v-102,-1,-251,3,-294,29v-36,21,-56,51,-56,98xm815,-1264v-4,-71,-68,-90,-153,-90v-132,1,-245,28,-347,70r35,-180v111,-32,223,-56,348,-56v124,0,219,21,284,64v79,52,107,128,94,242v-2,17,-4,34,-7,49r-86,448r-248,0r25,-125v-80,91,-163,144,-318,146v-154,2,-263,-68,-264,-211v0,-103,42,-181,124,-233v82,-52,204,-79,366,-79r141,0v3,-16,7,-25,6,-45","w":1155},"\u00ab":{"d":"1217,-1063r-50,252r-346,229r258,222r-43,223r-422,-369r37,-186xm727,-1063r-49,252r-346,229r258,222r-43,223r-422,-369r37,-186","w":1331},"\u00ac":{"d":"217,-909r1282,0r0,622r-235,0r0,-385r-1047,0r0,-237","w":1716},"\u00ad":{"d":"109,-735r628,0r-57,291r-629,0","w":850},"\u00ae":{"d":"1248,-1288v-136,-56,-313,-57,-449,0v-136,57,-264,187,-321,322v-57,135,-57,315,0,450v57,135,183,263,320,319v136,56,317,57,452,1v135,-56,264,-186,320,-320v57,-135,57,-315,0,-450v-57,-135,-187,-266,-322,-322xm1124,-934v0,-92,-87,-105,-192,-102r0,207v104,4,192,-14,192,-105xm1354,-934v-1,125,-85,196,-201,215v62,34,107,91,141,160r111,221r-229,0r-107,-213v-25,-52,-47,-90,-67,-111v-24,-25,-38,-34,-70,-32r0,356r-213,0r0,-836r285,0v117,0,205,20,263,60v58,40,87,99,87,180xm740,-1430v172,-72,396,-72,568,0v171,72,332,232,403,404v70,171,71,397,0,568v-71,171,-232,332,-403,403v-172,72,-396,72,-568,0v-171,-72,-332,-232,-403,-403v-71,-171,-70,-397,0,-568v71,-172,232,-332,403,-404","w":2048},"\u00af":{"d":"354,-1556r631,0r-37,188r-631,0","w":1024},"\u00b0":{"d":"684,-1200v0,-93,-80,-172,-172,-172v-94,0,-172,78,-172,172v0,94,77,170,172,170v93,0,172,-77,172,-170xm178,-1200v0,-226,231,-404,461,-308v115,48,205,150,205,308v0,156,-90,259,-204,306v-231,95,-462,-78,-462,-306","w":1024},"\u00b1":{"d":"977,-1284r0,354r522,0r0,236r-522,0r0,354r-238,0r0,-354r-522,0r0,-236r522,0r0,-354r238,0xm217,-238r1282,0r0,238r-1282,0r0,-238","w":1716},"\u00b2":{"d":"647,-1286v-1,-60,-55,-87,-123,-86v-111,2,-207,41,-286,90r36,-186v96,-30,189,-52,301,-52v99,0,176,18,229,54v101,67,100,209,25,308v-37,49,-94,103,-174,159r-231,163r377,0r-33,168r-676,0r31,-153r366,-266v53,-39,93,-74,119,-107v26,-33,39,-64,39,-92","w":897},"\u00b3":{"d":"874,-1327v-1,118,-95,193,-208,207v95,16,153,76,153,182v0,91,-40,159,-117,211v-131,88,-450,95,-620,27r33,-172v67,41,141,73,237,73v73,0,128,-14,170,-38v70,-39,87,-145,12,-185v-43,-23,-146,-26,-229,-25r27,-137v91,1,196,-3,248,-29v59,-30,82,-109,19,-140v-54,-27,-154,-23,-229,-6v-42,9,-90,22,-141,40r31,-166v153,-39,412,-59,531,15v55,33,83,81,83,143","w":897},"\u00b4":{"d":"811,-1638r293,0r-438,376r-201,0","w":1024},"\u00b5":{"d":"592,29v-97,0,-159,-30,-189,-95r-96,494r-362,0r301,-1548r360,0r-127,651v-5,25,-8,51,-8,78v0,101,63,153,168,151v153,-2,219,-89,246,-229r127,-651r360,0r-145,749v-4,23,-6,46,-8,70v-5,74,88,63,131,35r-50,250v-64,26,-123,45,-200,45v-124,0,-181,-54,-207,-158v-71,90,-160,158,-301,158","w":1507},"\u00b6":{"d":"502,-649v-206,-22,-350,-138,-350,-352v0,-143,52,-261,156,-353v104,-92,240,-139,407,-139r520,0r-328,1690r-190,0r299,-1543r-189,0r-301,1543r-188,0","w":1303},"\u00b7":{"d":"248,-905r360,0r-76,387r-360,0","w":778},"\u00b8":{"d":"375,150v0,-60,-28,-94,-58,-150r142,0v40,57,71,104,71,182v0,151,-123,221,-288,219v-73,0,-135,-10,-197,-26r29,-156v47,20,99,34,159,35v78,1,142,-34,142,-104","w":1024},"\u00b9":{"d":"168,-825r205,0r102,-521r-233,52r30,-160r244,-49r219,0r-133,678r207,0r-31,157r-641,0","w":897},"\u00ba":{"d":"178,-1032v0,-296,234,-488,541,-488v227,0,396,120,397,334v2,298,-230,488,-538,488v-225,0,-400,-122,-400,-334xm133,-573r823,0r-38,200r-824,0xm831,-1194v1,-95,-45,-156,-137,-156v-66,0,-121,30,-164,92v-43,62,-65,140,-65,234v-1,97,44,156,137,156v66,0,121,-31,164,-92v43,-61,65,-139,65,-234","w":1155},"\u00bb":{"d":"117,-135r49,-254r344,-229r-256,-222r43,-223r420,371r-35,186xm606,-135r49,-254r344,-229r-258,-222r45,-223r420,371r-35,186","w":1331},"\u00bc":{"d":"1700,-651r-307,334r239,0xm1712,-836r250,0r-100,519r135,0r-29,155r-137,0r-33,162r-229,0r33,-162r-392,0r33,-168xm616,29r-245,0r1235,-1549r245,0xm168,-825r205,0r102,-521r-233,52r30,-160r244,-49r219,0r-133,678r207,0r-31,157r-641,0","w":2181},"\u00bd":{"d":"1827,-616v-1,-61,-56,-90,-123,-89v-111,2,-210,42,-289,91r37,-187v152,-53,404,-81,530,3v101,67,101,209,26,308v-37,49,-94,102,-173,158r-231,164r374,0r-32,168r-674,0r31,-154r366,-266v54,-39,93,-74,119,-106v26,-32,39,-63,39,-90xm616,29r-245,0r1235,-1549r245,0xm168,-825r205,0r102,-521r-233,52r30,-160r244,-49r219,0r-133,678r207,0r-31,157r-641,0","w":2181},"\u00be":{"d":"883,-1327v0,119,-95,193,-209,207v95,17,154,75,155,182v0,91,-41,159,-117,211v-131,89,-452,95,-622,27r35,-172v67,41,141,73,237,73v73,0,128,-14,170,-38v70,-39,87,-145,13,-185v-43,-23,-147,-26,-230,-25r27,-137v91,1,197,-2,248,-29v58,-30,80,-109,18,-140v-55,-27,-155,-22,-230,-6v-43,9,-90,22,-140,40r32,-166v213,-50,613,-82,613,158xm1704,-651r-305,334r239,0xm1718,-836r248,0r-100,519r137,0r-31,155r-137,0r-31,162r-229,0r31,-162r-389,0r30,-168xm631,29r-246,0r1235,-1549r246,0","w":2181},"\u00bf":{"d":"434,-354v1,84,64,121,156,118v150,-4,277,-66,397,-133r-61,314v-144,47,-270,82,-434,82v-130,0,-232,-28,-306,-85v-74,-57,-110,-136,-110,-235v0,-79,19,-149,53,-213v43,-81,163,-185,256,-256v56,-43,92,-77,111,-102v29,-37,36,-75,45,-125r360,0v-13,75,-32,138,-68,193v-33,50,-169,160,-249,223v-53,41,-92,78,-115,113v-23,35,-35,70,-35,106xm930,-1137r-361,0r70,-356r360,0","w":1188},"\u00c0":{"d":"1006,-272r-596,0r-148,272r-395,0r844,-1493r440,0r264,1493r-366,0xm555,-543r401,0r-90,-575xm940,-1899r144,264r-178,0r-230,-264r264,0","w":1585},"\u00c1":{"d":"1006,-272r-596,0r-148,272r-395,0r844,-1493r440,0r264,1493r-366,0xm555,-543r401,0r-90,-575xm1035,-1899r280,0r-319,264r-207,0","w":1585},"\u00c2":{"d":"1006,-272r-596,0r-148,272r-395,0r844,-1493r440,0r264,1493r-366,0xm555,-543r401,0r-90,-575xm799,-1899r348,0r152,264r-170,0r-164,-161r-231,161r-179,0","w":1585},"\u00c3":{"d":"1006,-272r-596,0r-148,272r-395,0r844,-1493r440,0r264,1493r-366,0xm555,-543r401,0r-90,-575xm1058,-1789v79,31,126,-36,136,-112r138,0v-17,85,-48,151,-92,197v-58,62,-138,85,-228,58v-53,-17,-109,-82,-160,-102v-77,-31,-121,43,-133,113r-137,0v17,-85,48,-151,92,-197v58,-61,141,-86,230,-57v55,18,99,79,154,100","w":1585},"\u00c4":{"d":"1006,-272r-596,0r-148,272r-395,0r844,-1493r440,0r264,1493r-366,0xm555,-543r401,0r-90,-575xm670,-1899r236,0r-47,246r-236,0xm1065,-1899r238,0r-49,246r-236,0","w":1585},"\u00c5":{"d":"926,-1747v-70,0,-131,61,-131,131v0,70,61,131,131,131v70,0,131,-61,131,-131v0,-70,-62,-131,-131,-131xm1210,-1616v-2,72,-20,117,-55,160r260,1456r-366,0r-43,-272r-596,0r-148,272r-395,0r825,-1458v-31,-44,-49,-90,-51,-158v-3,-152,132,-285,285,-285v152,0,288,134,284,285xm555,-543r401,0r-90,-575","w":1585},"\u00c6":{"d":"985,-1237r-375,610r377,0r119,-610r-121,0xm774,-1493r1421,0r-57,291r-653,0r-53,278r614,0r-57,291r-615,0r-65,342r673,0r-55,291r-1061,0r68,-350r-492,0r-217,350r-385,0","w":2222},"\u00c7":{"d":"781,150v0,-60,-28,-94,-58,-150r142,0v40,57,71,104,71,182v0,151,-123,221,-288,219v-73,0,-135,-10,-197,-26r29,-156v47,20,99,34,159,35v78,1,142,-34,142,-104xm477,-618v0,226,136,370,361,368v67,0,138,-12,214,-36v76,-24,161,-63,255,-115r-66,331v-157,56,-319,97,-506,99v-383,7,-664,-232,-661,-602v2,-267,92,-470,225,-627v156,-185,397,-320,713,-320v183,0,331,46,471,111r-62,309v-113,-85,-225,-141,-401,-141v-154,0,-283,59,-387,178v-104,119,-156,267,-156,445","w":1503},"\u00c8":{"d":"334,-1493r1038,0r-57,291r-653,0r-54,278r615,0r-58,291r-614,0r-66,342r674,0r-55,291r-1061,0xm899,-1899r144,264r-178,0r-230,-264r264,0","w":1399},"\u00c9":{"d":"334,-1493r1038,0r-57,291r-653,0r-54,278r615,0r-58,291r-614,0r-66,342r674,0r-55,291r-1061,0xm994,-1899r280,0r-319,264r-207,0","w":1399},"\u00ca":{"d":"334,-1493r1038,0r-57,291r-653,0r-54,278r615,0r-58,291r-614,0r-66,342r674,0r-55,291r-1061,0xm758,-1899r348,0r152,264r-170,0r-164,-161r-231,161r-179,0","w":1399},"\u00cb":{"d":"334,-1493r1038,0r-57,291r-653,0r-54,278r615,0r-58,291r-614,0r-66,342r674,0r-55,291r-1061,0xm629,-1899r236,0r-47,246r-236,0xm1024,-1899r238,0r-49,246r-236,0","w":1399},"\u00cc":{"d":"334,-1493r385,0r-291,1493r-385,0xm542,-1899r144,264r-178,0r-230,-264r264,0","w":762},"\u00cd":{"d":"334,-1493r385,0r-291,1493r-385,0xm637,-1899r280,0r-319,264r-207,0","w":762},"\u00ce":{"d":"334,-1493r385,0r-291,1493r-385,0xm401,-1899r348,0r152,264r-170,0r-164,-161r-231,161r-179,0","w":762},"\u00cf":{"d":"334,-1493r385,0r-291,1493r-385,0xm272,-1899r236,0r-47,246r-236,0xm667,-1899r238,0r-49,246r-236,0","w":762},"\u00d0":{"d":"1241,-850v-1,-244,-154,-353,-410,-352r-135,0r-57,299r246,0r-51,260r-246,0r-70,352r137,0v351,5,589,-215,586,-559xm367,-1493v263,2,660,-9,840,35v188,46,320,153,388,312v85,198,56,451,-35,642v-104,219,-289,391,-542,458v-116,31,-295,46,-537,46r-405,0r125,-643r-205,0r51,-260r205,0","w":1731},"\u00d1":{"d":"334,-1493r430,0r342,1034r201,-1034r364,0r-291,1493r-430,0r-342,-1034r-200,1034r-365,0xm1107,-1789v79,31,125,-37,136,-112r138,0v-17,85,-47,151,-91,197v-58,61,-138,85,-229,58v-53,-17,-108,-81,-159,-102v-77,-31,-122,42,-134,113r-137,0v17,-85,47,-151,91,-197v58,-61,140,-86,230,-57v55,19,100,79,155,100","w":1714},"\u00d2":{"d":"479,-612v0,213,99,362,299,362v265,0,387,-185,450,-397v23,-76,32,-154,32,-234v1,-222,-98,-359,-310,-360v-133,0,-246,59,-336,179v-90,120,-135,270,-135,450xm733,29v-377,5,-662,-233,-659,-598v2,-268,88,-479,217,-637v160,-196,379,-309,715,-314v378,-5,664,234,661,598v-2,266,-89,479,-217,635v-162,197,-380,311,-717,316xm1060,-1899r144,264r-178,0r-230,-264r264,0","w":1741},"\u00d3":{"d":"479,-612v0,213,99,362,299,362v265,0,387,-185,450,-397v23,-76,32,-154,32,-234v1,-222,-98,-359,-310,-360v-133,0,-246,59,-336,179v-90,120,-135,270,-135,450xm733,29v-377,5,-662,-233,-659,-598v2,-268,88,-479,217,-637v160,-196,379,-309,715,-314v378,-5,664,234,661,598v-2,266,-89,479,-217,635v-162,197,-380,311,-717,316xm1155,-1899r280,0r-319,264r-207,0","w":1741},"\u00d4":{"d":"479,-612v0,213,99,362,299,362v265,0,387,-185,450,-397v23,-76,32,-154,32,-234v1,-222,-98,-359,-310,-360v-133,0,-246,59,-336,179v-90,120,-135,270,-135,450xm733,29v-377,5,-662,-233,-659,-598v2,-268,88,-479,217,-637v160,-196,379,-309,715,-314v378,-5,664,234,661,598v-2,266,-89,479,-217,635v-162,197,-380,311,-717,316xm919,-1899r348,0r152,264r-170,0r-164,-161r-231,161r-179,0","w":1741},"\u00d5":{"d":"479,-612v0,213,99,362,299,362v265,0,387,-185,450,-397v23,-76,32,-154,32,-234v1,-222,-98,-359,-310,-360v-133,0,-246,59,-336,179v-90,120,-135,270,-135,450xm733,29v-377,5,-662,-233,-659,-598v2,-268,88,-479,217,-637v160,-196,379,-309,715,-314v378,-5,664,234,661,598v-2,266,-89,479,-217,635v-162,197,-380,311,-717,316xm1178,-1789v79,31,126,-36,136,-112r138,0v-17,85,-48,151,-92,197v-58,62,-138,85,-228,58v-53,-17,-109,-82,-160,-102v-77,-31,-121,43,-133,113r-137,0v17,-85,48,-151,92,-197v58,-61,141,-86,230,-57v55,18,99,79,154,100","w":1741},"\u00d6":{"d":"479,-612v0,213,99,362,299,362v265,0,387,-185,450,-397v23,-76,32,-154,32,-234v1,-222,-98,-359,-310,-360v-133,0,-246,59,-336,179v-90,120,-135,270,-135,450xm733,29v-377,5,-662,-233,-659,-598v2,-268,88,-479,217,-637v160,-196,379,-309,715,-314v378,-5,664,234,661,598v-2,266,-89,479,-217,635v-162,197,-380,311,-717,316xm790,-1899r236,0r-47,246r-236,0xm1185,-1899r238,0r-49,246r-236,0","w":1741},"\u00d7":{"d":"1460,-1075r-434,434r434,432r-168,168r-434,-432r-434,432r-168,-168r434,-432r-434,-434r168,-168r434,434r434,-434","w":1716},"\u00d8":{"d":"1196,-1128v-50,-72,-128,-112,-244,-113v-135,0,-246,60,-336,179v-102,136,-148,312,-131,530xm733,29v-209,0,-360,-61,-475,-164r-252,213r-102,-123r254,-213v-50,-87,-84,-187,-84,-311v0,-268,88,-479,217,-637v162,-197,377,-314,715,-314v206,0,357,56,469,156r258,-215r102,123r-258,213v53,90,90,192,90,323v0,266,-88,479,-217,635v-161,196,-381,314,-717,314xm539,-371v48,73,126,121,239,121v266,0,387,-186,450,-398v32,-108,45,-203,25,-321","w":1741},"\u00d9":{"d":"680,29v-357,0,-575,-164,-536,-523v3,-30,9,-65,16,-104r174,-895r385,0r-174,894v-11,52,-18,98,-19,150v0,133,73,195,209,195v93,0,165,-26,215,-78v50,-52,87,-141,111,-266r174,-895r385,0r-174,895v-43,220,-125,379,-246,478v-121,99,-295,149,-520,149xm981,-1899r144,264r-178,0r-230,-264r264,0","w":1663},"\u00da":{"d":"680,29v-357,0,-575,-164,-536,-523v3,-30,9,-65,16,-104r174,-895r385,0r-174,894v-11,52,-18,98,-19,150v0,133,73,195,209,195v93,0,165,-26,215,-78v50,-52,87,-141,111,-266r174,-895r385,0r-174,895v-43,220,-125,379,-246,478v-121,99,-295,149,-520,149xm1076,-1899r280,0r-319,264r-207,0","w":1663},"\u00db":{"d":"680,29v-357,0,-575,-164,-536,-523v3,-30,9,-65,16,-104r174,-895r385,0r-174,894v-11,52,-18,98,-19,150v0,133,73,195,209,195v93,0,165,-26,215,-78v50,-52,87,-141,111,-266r174,-895r385,0r-174,895v-43,220,-125,379,-246,478v-121,99,-295,149,-520,149xm840,-1899r348,0r152,264r-170,0r-164,-161r-231,161r-179,0","w":1663},"\u00dc":{"d":"680,29v-357,0,-575,-164,-536,-523v3,-30,9,-65,16,-104r174,-895r385,0r-174,894v-11,52,-18,98,-19,150v0,133,73,195,209,195v93,0,165,-26,215,-78v50,-52,87,-141,111,-266r174,-895r385,0r-174,895v-43,220,-125,379,-246,478v-121,99,-295,149,-520,149xm711,-1899r236,0r-47,246r-236,0xm1106,-1899r238,0r-49,246r-236,0","w":1663},"\u00dd":{"d":"129,-1493r385,0r254,553r444,-553r445,0r-737,870r-121,623r-385,0r121,-623xm998,-1899r280,0r-319,264r-207,0","w":1483},"\u00de":{"d":"922,-1270v290,-3,501,135,501,406v0,175,-72,312,-170,405v-124,117,-279,163,-522,164r-246,0r-57,295r-385,0r291,-1493r385,0r-43,223r246,0xm1026,-825v-1,-116,-76,-169,-199,-168r-206,0r-80,420r204,0v174,1,281,-84,281,-252","w":1520},"\u00df":{"d":"1036,-1145v15,-114,-46,-177,-159,-174v-150,3,-214,82,-240,219r-215,1100r-359,0r216,-1114v57,-302,263,-442,624,-442v151,0,264,30,343,88v99,73,137,202,108,353r-15,73v-101,3,-181,21,-240,52v-59,31,-89,70,-89,118v0,38,54,95,117,137v114,76,223,155,223,332v0,268,-223,437,-506,432v-114,-2,-212,-20,-303,-49r49,-244v64,31,135,54,219,55v98,2,181,-48,182,-137v0,-27,-9,-50,-23,-72v-20,-31,-112,-96,-161,-131v-75,-53,-127,-104,-127,-211v0,-92,31,-171,92,-237v61,-66,149,-115,264,-148","w":1473},"\u00e0":{"d":"731,-1638r209,376r-197,0r-295,-376r283,0xm403,-340v-2,85,63,132,152,131v177,-2,268,-128,291,-295v-198,0,-439,-23,-443,164xm381,29v-201,4,-347,-112,-346,-305v0,-143,55,-252,165,-328v110,-76,270,-113,478,-113r211,0v3,-20,7,-38,8,-59v0,-44,-21,-78,-63,-100v-89,-48,-281,-38,-400,-10v-69,15,-136,38,-201,69r54,-273v144,-36,298,-57,473,-57v166,0,289,28,370,85v98,68,135,184,116,336v-3,27,-7,56,-13,87r-125,639r-358,0r30,-166v-102,114,-212,191,-399,195","w":1382},"\u00e1":{"d":"991,-1638r293,0r-438,376r-201,0xm403,-340v-2,85,63,132,152,131v177,-2,268,-128,291,-295v-198,0,-439,-23,-443,164xm381,29v-201,4,-347,-112,-346,-305v0,-143,55,-252,165,-328v110,-76,270,-113,478,-113r211,0v3,-20,7,-38,8,-59v0,-44,-21,-78,-63,-100v-89,-48,-281,-38,-400,-10v-69,15,-136,38,-201,69r54,-273v144,-36,298,-57,473,-57v166,0,289,28,370,85v98,68,135,184,116,336v-3,27,-7,56,-13,87r-125,639r-358,0r30,-166v-102,114,-212,191,-399,195","w":1382},"\u00e2":{"d":"725,-1638r262,0r182,376r-178,0r-156,-225r-241,225r-197,0xm403,-340v-2,85,63,132,152,131v177,-2,268,-128,291,-295v-198,0,-439,-23,-443,164xm381,29v-201,4,-347,-112,-346,-305v0,-143,55,-252,165,-328v110,-76,270,-113,478,-113r211,0v3,-20,7,-38,8,-59v0,-44,-21,-78,-63,-100v-89,-48,-281,-38,-400,-10v-69,15,-136,38,-201,69r54,-273v144,-36,298,-57,473,-57v166,0,289,28,370,85v98,68,135,184,116,336v-3,27,-7,56,-13,87r-125,639r-358,0r30,-166v-102,114,-212,191,-399,195","w":1382},"\u00e3":{"d":"964,-1462v64,-4,89,-62,101,-129r139,0v-17,91,-48,161,-91,210v-56,64,-134,93,-223,63v-38,-13,-97,-62,-134,-90v-26,-19,-48,-30,-68,-30v-58,0,-86,66,-96,129r-140,0v18,-91,48,-162,92,-211v58,-65,140,-92,230,-60v56,21,105,81,158,110v11,5,22,8,32,8xm403,-340v-2,85,63,132,152,131v177,-2,268,-128,291,-295v-198,0,-439,-23,-443,164xm381,29v-201,4,-347,-112,-346,-305v0,-143,55,-252,165,-328v110,-76,270,-113,478,-113r211,0v3,-20,7,-38,8,-59v0,-44,-21,-78,-63,-100v-89,-48,-281,-38,-400,-10v-69,15,-136,38,-201,69r54,-273v144,-36,298,-57,473,-57v166,0,289,28,370,85v98,68,135,184,116,336v-3,27,-7,56,-13,87r-125,639r-358,0r30,-166v-102,114,-212,191,-399,195","w":1382},"\u00e4":{"d":"538,-1585r238,0r-49,246r-236,0xm936,-1585r235,0r-49,246r-235,0xm403,-340v-2,85,63,132,152,131v177,-2,268,-128,291,-295v-198,0,-439,-23,-443,164xm381,29v-201,4,-347,-112,-346,-305v0,-143,55,-252,165,-328v110,-76,270,-113,478,-113r211,0v3,-20,7,-38,8,-59v0,-44,-21,-78,-63,-100v-89,-48,-281,-38,-400,-10v-69,15,-136,38,-201,69r54,-273v144,-36,298,-57,473,-57v166,0,289,28,370,85v98,68,135,184,116,336v-3,27,-7,56,-13,87r-125,639r-358,0r30,-166v-102,114,-212,191,-399,195","w":1382},"\u00e5":{"d":"403,-340v-2,85,63,132,152,131v177,-2,268,-128,291,-295v-198,0,-439,-23,-443,164xm381,29v-201,4,-347,-112,-346,-305v0,-143,55,-252,165,-328v110,-76,270,-113,478,-113r211,0v3,-20,7,-38,8,-59v0,-44,-21,-78,-63,-100v-89,-48,-281,-38,-400,-10v-69,15,-136,38,-201,69r54,-273v144,-36,298,-57,473,-57v166,0,289,28,370,85v98,68,135,184,116,336v-3,27,-7,56,-13,87r-125,639r-358,0r30,-166v-102,114,-212,191,-399,195xm842,-1808v156,0,284,128,284,284v0,157,-128,285,-284,285v-156,0,-285,-129,-285,-285v0,-156,128,-284,285,-284xm842,-1374v85,0,149,-64,149,-150v0,-85,-64,-149,-149,-149v-86,0,-150,64,-150,149v0,86,64,150,150,150","w":1382},"\u00e6":{"d":"403,-340v-2,85,63,132,152,131v177,-2,268,-128,291,-295v-198,0,-439,-23,-443,164xm397,29v-211,4,-361,-104,-362,-303v0,-144,55,-254,165,-330v110,-76,271,-113,482,-113r205,0v3,-20,9,-37,10,-59v0,-44,-21,-78,-62,-100v-90,-48,-282,-37,-399,-10v-69,15,-135,38,-198,69r53,-273v140,-33,285,-56,444,-57v192,0,321,43,402,150v117,-94,244,-148,438,-150v314,-3,528,203,484,536v-7,51,-17,104,-29,150r-836,0v-16,175,84,255,260,252v192,-4,347,-61,500,-135r-53,278v-159,58,-325,95,-527,95v-230,0,-386,-67,-475,-207v-136,120,-279,203,-502,207xm1706,-682v29,-129,-47,-230,-172,-227v-158,4,-248,96,-291,227r463,0","w":2146},"\u00e7":{"d":"606,150v0,-60,-28,-94,-58,-150r142,0v40,57,71,104,71,182v0,151,-123,221,-288,219v-73,0,-135,-10,-197,-26r29,-156v47,20,99,34,159,35v78,1,142,-34,142,-104xm625,29v-328,3,-549,-146,-549,-455v0,-210,89,-380,203,-498v137,-142,311,-223,575,-223v127,0,236,25,336,62r-57,292v-81,-53,-166,-95,-279,-98v-233,-4,-397,182,-397,418v0,159,101,248,264,246v129,-1,234,-41,319,-99r-55,293v-108,38,-224,61,-360,62","w":1214},"\u00e8":{"d":"778,-1638r209,376r-197,0r-295,-376r283,0xm817,-1147v317,-4,534,198,489,531v-5,47,-20,107,-30,155r-838,0v-16,175,84,255,260,252v192,-4,349,-62,502,-135r-55,278v-159,58,-323,94,-524,95v-328,3,-547,-152,-547,-463v0,-196,77,-352,178,-469v127,-146,310,-242,565,-244xm950,-682v29,-129,-46,-230,-172,-227v-159,4,-246,95,-291,227r463,0","w":1389},"\u00e9":{"d":"1038,-1638r293,0r-438,376r-201,0xm817,-1147v317,-4,534,198,489,531v-5,47,-20,107,-30,155r-838,0v-16,175,84,255,260,252v192,-4,349,-62,502,-135r-55,278v-159,58,-323,94,-524,95v-328,3,-547,-152,-547,-463v0,-196,77,-352,178,-469v127,-146,310,-242,565,-244xm950,-682v29,-129,-46,-230,-172,-227v-159,4,-246,95,-291,227r463,0","w":1389},"\u00ea":{"d":"772,-1638r262,0r182,376r-178,0r-156,-225r-241,225r-197,0xm817,-1147v317,-4,534,198,489,531v-5,47,-20,107,-30,155r-838,0v-16,175,84,255,260,252v192,-4,349,-62,502,-135r-55,278v-159,58,-323,94,-524,95v-328,3,-547,-152,-547,-463v0,-196,77,-352,178,-469v127,-146,310,-242,565,-244xm950,-682v29,-129,-46,-230,-172,-227v-159,4,-246,95,-291,227r463,0","w":1389},"\u00eb":{"d":"585,-1585r238,0r-49,246r-236,0xm983,-1585r235,0r-49,246r-235,0xm817,-1147v317,-4,534,198,489,531v-5,47,-20,107,-30,155r-838,0v-16,175,84,255,260,252v192,-4,349,-62,502,-135r-55,278v-159,58,-323,94,-524,95v-328,3,-547,-152,-547,-463v0,-196,77,-352,178,-469v127,-146,310,-242,565,-244xm950,-682v29,-129,-46,-230,-172,-227v-159,4,-246,95,-291,227r463,0","w":1389},"\u00ec":{"d":"410,-1638r209,376r-197,0r-295,-376r283,0xm281,-1120r360,0r-219,1120r-359,0","w":702},"\u00ed":{"d":"670,-1638r293,0r-438,376r-201,0xm281,-1120r360,0r-219,1120r-359,0","w":702},"\u00ee":{"d":"404,-1638r262,0r182,376r-178,0r-156,-225r-241,225r-197,0xm281,-1120r360,0r-219,1120r-359,0","w":702},"\u00ef":{"d":"217,-1585r238,0r-49,246r-236,0xm615,-1585r235,0r-49,246r-235,0xm281,-1120r360,0r-219,1120r-359,0","w":702},"\u00f0":{"d":"449,-451v0,138,63,223,194,224v93,0,170,-43,230,-127v69,-97,102,-234,85,-389v-61,-31,-124,-53,-206,-54v-192,-1,-303,147,-303,346xm74,-426v0,-401,318,-677,750,-622v29,5,55,11,79,20r-151,-215r-385,108r-35,-129r340,-94r-137,-198r352,0r82,116r385,-106r35,127r-340,94r155,225v77,111,129,246,129,420v0,198,-76,356,-178,473v-124,142,-302,233,-551,236v-300,4,-530,-170,-530,-455","w":1407},"\u00f1":{"d":"1001,-1462v64,-4,89,-62,101,-129r139,0v-17,91,-48,161,-91,210v-56,64,-134,93,-223,63v-38,-13,-97,-62,-134,-90v-26,-19,-48,-30,-68,-30v-58,0,-86,66,-96,129r-140,0v18,-91,49,-162,93,-211v58,-65,138,-92,228,-60v56,21,106,81,159,110v11,5,22,8,32,8xm1016,-1147v226,0,350,144,318,380v-3,26,-7,54,-13,85r-133,682r-359,0r131,-680v25,-114,-19,-197,-129,-197v-74,0,-138,29,-191,87v-53,58,-89,137,-110,239r-108,551r-359,0r218,-1120r360,0r-33,164v66,-65,132,-113,199,-144v67,-31,136,-47,209,-47","w":1458},"\u00f2":{"d":"744,-1638r209,376r-197,0r-295,-376r283,0xm958,-676v1,-134,-61,-215,-190,-215v-93,0,-169,42,-229,126v-60,84,-90,191,-90,321v-1,135,61,217,190,217v93,0,169,-43,229,-127v60,-84,90,-191,90,-322xm606,29v-313,4,-534,-172,-532,-473v1,-194,78,-351,178,-467v122,-142,299,-233,545,-236v316,-4,538,170,536,473v-1,195,-76,350,-176,465v-125,144,-300,235,-551,238","w":1407},"\u00f3":{"d":"1004,-1638r293,0r-438,376r-201,0xm958,-676v1,-134,-61,-215,-190,-215v-93,0,-169,42,-229,126v-60,84,-90,191,-90,321v-1,135,61,217,190,217v93,0,169,-43,229,-127v60,-84,90,-191,90,-322xm606,29v-313,4,-534,-172,-532,-473v1,-194,78,-351,178,-467v122,-142,299,-233,545,-236v316,-4,538,170,536,473v-1,195,-76,350,-176,465v-125,144,-300,235,-551,238","w":1407},"\u00f4":{"d":"738,-1638r262,0r182,376r-178,0r-156,-225r-241,225r-197,0xm958,-676v1,-134,-61,-215,-190,-215v-93,0,-169,42,-229,126v-60,84,-90,191,-90,321v-1,135,61,217,190,217v93,0,169,-43,229,-127v60,-84,90,-191,90,-322xm606,29v-313,4,-534,-172,-532,-473v1,-194,78,-351,178,-467v122,-142,299,-233,545,-236v316,-4,538,170,536,473v-1,195,-76,350,-176,465v-125,144,-300,235,-551,238","w":1407},"\u00f5":{"d":"977,-1462v64,-4,89,-62,101,-129r139,0v-17,91,-48,161,-91,210v-56,64,-134,93,-223,63v-38,-13,-97,-62,-134,-90v-26,-19,-48,-30,-68,-30v-58,0,-86,66,-96,129r-140,0v18,-91,49,-162,93,-211v58,-65,138,-92,228,-60v56,21,106,81,159,110v11,5,22,8,32,8xm958,-676v1,-134,-61,-215,-190,-215v-93,0,-169,42,-229,126v-60,84,-90,191,-90,321v-1,135,61,217,190,217v93,0,169,-43,229,-127v60,-84,90,-191,90,-322xm606,29v-313,4,-534,-172,-532,-473v1,-194,78,-351,178,-467v122,-142,299,-233,545,-236v316,-4,538,170,536,473v-1,195,-76,350,-176,465v-125,144,-300,235,-551,238","w":1407},"\u00f6":{"d":"551,-1585r238,0r-49,246r-236,0xm949,-1585r235,0r-49,246r-235,0xm958,-676v1,-134,-61,-215,-190,-215v-93,0,-169,42,-229,126v-60,84,-90,191,-90,321v-1,135,61,217,190,217v93,0,169,-43,229,-127v60,-84,90,-191,90,-322xm606,29v-313,4,-534,-172,-532,-473v1,-194,78,-351,178,-467v122,-142,299,-233,545,-236v316,-4,538,170,536,473v-1,195,-76,350,-176,465v-125,144,-300,235,-551,238","w":1407},"\u00f7":{"d":"705,-395r307,0r0,309r-307,0r0,-309xm705,-1198r307,0r0,309r-307,0r0,-309xm217,-760r1282,0r0,236r-1282,0r0,-236","w":1716},"\u00f8":{"d":"905,-842v-30,-31,-76,-49,-137,-49v-93,0,-168,39,-224,119v-56,80,-88,191,-95,334xm606,29v-150,0,-264,-34,-352,-99r-193,172r-96,-112r187,-164v-91,-126,-101,-351,-32,-518v106,-259,321,-455,681,-455v143,0,257,33,344,92r192,-168r97,111r-183,162v51,73,82,160,82,276v0,195,-76,350,-176,465v-123,141,-304,238,-551,238xm498,-283v32,36,75,56,141,56v94,0,170,-41,227,-124v57,-83,87,-196,92,-341","w":1407},"\u00f9":{"d":"768,-1638r209,376r-197,0r-295,-376r283,0xm444,29v-226,5,-348,-145,-317,-384v3,-26,7,-53,12,-81r131,-684r359,0r-113,583v-12,58,-23,107,-24,160v-1,84,50,134,135,133v74,0,138,-29,191,-86v53,-57,90,-137,110,-239r108,-551r359,0r-217,1120r-361,0r33,-164v-105,109,-222,189,-406,193","w":1458},"\u00fa":{"d":"1028,-1638r293,0r-438,376r-201,0xm444,29v-226,5,-348,-145,-317,-384v3,-26,7,-53,12,-81r131,-684r359,0r-113,583v-12,58,-23,107,-24,160v-1,84,50,134,135,133v74,0,138,-29,191,-86v53,-57,90,-137,110,-239r108,-551r359,0r-217,1120r-361,0r33,-164v-105,109,-222,189,-406,193","w":1458},"\u00fb":{"d":"762,-1638r262,0r182,376r-178,0r-156,-225r-241,225r-197,0xm444,29v-226,5,-348,-145,-317,-384v3,-26,7,-53,12,-81r131,-684r359,0r-113,583v-12,58,-23,107,-24,160v-1,84,50,134,135,133v74,0,138,-29,191,-86v53,-57,90,-137,110,-239r108,-551r359,0r-217,1120r-361,0r33,-164v-105,109,-222,189,-406,193","w":1458},"\u00fc":{"d":"575,-1585r238,0r-49,246r-236,0xm973,-1585r235,0r-49,246r-235,0xm444,29v-226,5,-348,-145,-317,-384v3,-26,7,-53,12,-81r131,-684r359,0r-113,583v-12,58,-23,107,-24,160v-1,84,50,134,135,133v74,0,138,-29,191,-86v53,-57,90,-137,110,-239r108,-551r359,0r-217,1120r-361,0r33,-164v-105,109,-222,189,-406,193","w":1458},"\u00fd":{"d":"967,-1638r293,0r-438,376r-201,0xm135,-1120r338,0r154,776r397,-776r383,0r-709,1226v-79,138,-153,229,-220,272v-67,43,-154,64,-261,64r-217,0r37,-235v91,0,196,4,249,-29v47,-29,89,-106,120,-164","w":1335},"\u00fe":{"d":"786,29v-171,0,-264,-72,-331,-191r-115,588r-360,0r385,-1982r360,0r-117,600v94,-111,193,-188,369,-191v257,-4,412,182,409,447v-2,191,-62,354,-149,473v-61,84,-129,148,-205,191v-76,43,-159,65,-246,65xm1016,-678v1,-130,-60,-209,-185,-209v-92,0,-167,42,-225,127v-58,85,-88,196,-88,332v0,120,69,198,187,197v90,0,164,-41,223,-125v59,-84,88,-191,88,-322","w":1466},"\u00ff":{"d":"514,-1585r238,0r-49,246r-236,0xm912,-1585r235,0r-49,246r-235,0xm135,-1120r338,0r154,776r397,-776r383,0r-709,1226v-79,138,-153,229,-220,272v-67,43,-154,64,-261,64r-217,0r37,-235v91,0,196,4,249,-29v47,-29,89,-106,120,-164","w":1335},"\u0152":{"d":"1268,-1202v-124,-1,-255,2,-349,24v-174,41,-282,134,-361,271v-97,169,-97,427,52,529v82,56,205,87,375,87r107,0xm1178,-1493r1185,0r-57,291r-651,0r-56,278r615,0r-57,291r-615,0r-65,342r675,0r-57,291r-1214,0v-253,0,-448,-50,-587,-151v-139,-101,-208,-242,-208,-424v0,-161,39,-310,118,-447v177,-304,486,-471,974,-471","w":2390},"\u0153":{"d":"1798,-682v29,-129,-46,-230,-172,-227v-157,4,-250,97,-293,227r465,0xm1669,-1147v312,-3,530,202,484,531v-7,49,-19,106,-29,155r-838,0v-16,175,84,255,260,252v191,-4,350,-62,502,-135r-55,278v-160,58,-324,95,-527,95v-201,0,-331,-46,-413,-160v-112,102,-240,158,-441,160v-317,4,-540,-169,-538,-473v1,-194,77,-352,176,-467v124,-144,302,-236,553,-236v189,0,323,55,407,162v116,-100,258,-160,459,-162xm958,-676v1,-134,-61,-215,-190,-215v-93,0,-169,42,-229,126v-60,84,-90,191,-90,321v-1,135,61,217,190,217v93,0,169,-43,229,-127v60,-84,90,-191,90,-322","w":2241},"\u0178":{"d":"129,-1493r385,0r254,553r444,-553r445,0r-737,870r-121,623r-385,0r121,-623xm633,-1899r236,0r-47,246r-236,0xm1028,-1899r238,0r-49,246r-236,0","w":1483},"\u02c6":{"d":"545,-1638r262,0r182,376r-178,0r-156,-225r-241,225r-197,0","w":1024},"\u02dc":{"d":"784,-1462v64,-4,89,-62,101,-129r139,0v-17,91,-48,161,-91,210v-56,64,-134,93,-223,63v-38,-13,-97,-62,-134,-90v-26,-19,-48,-30,-68,-30v-58,0,-86,66,-96,129r-140,0v18,-91,48,-162,92,-211v58,-65,140,-92,230,-60v56,21,105,81,158,110v11,5,22,8,32,8","w":1024},"\u2013":{"d":"-10,-690r1024,0r-51,258r-1024,0","w":1024},"\u2014":{"d":"-10,-690r2048,0r-51,258r-2048,0","w":2048},"\u2018":{"d":"571,-856r-340,0r58,-285r295,-352r213,0r-170,352","w":778},"\u2019":{"d":"375,-1493r340,0r-56,285r-297,352r-212,0r169,-352","w":778},"\u201a":{"d":"156,-387r340,0r-56,285r-297,352r-213,0r170,-352","w":778},"\u201c":{"d":"1112,-856r-340,0r55,-285r295,-352r213,0r-168,352xm571,-856r-340,0r58,-285r295,-352r213,0r-170,352","w":1319},"\u201d":{"d":"913,-1493r340,0r-55,285r-295,352r-213,0r168,-352xm375,-1493r340,0r-56,285r-297,352r-212,0r169,-352","w":1319},"\u201e":{"d":"694,-387r340,0r-55,285r-295,352r-213,0r168,-352xm156,-387r340,0r-56,285r-297,352r-213,0r170,-352","w":1319},"\u2022":{"d":"322,-622v-35,-86,-35,-193,0,-279v35,-86,110,-159,195,-193v86,-35,192,-36,277,1v124,53,220,162,220,331v0,170,-99,281,-222,334v-85,37,-191,36,-277,0v-86,-36,-157,-108,-193,-194","w":1309},"\u2026":{"d":"805,-387r360,0r-75,387r-361,0xm170,-387r360,0r-75,387r-361,0xm1440,-387r360,0r-76,387r-360,0","w":2048},"\u2039":{"d":"727,-1063r-49,252r-346,229r258,222r-43,223r-422,-369r37,-186","w":844},"\u203a":{"d":"78,-135r49,-254r344,-229r-256,-222r43,-223r420,371r-35,186","w":844},"\u20ac":{"d":"545,-477v29,150,130,243,301,244v61,0,127,-14,196,-43v69,-29,138,-71,207,-125r-59,331v-140,55,-285,98,-455,99v-340,2,-546,-199,-590,-506r-229,0r88,-195r139,0v4,-54,11,-96,25,-149r-176,0r86,-195r155,0v65,-154,166,-277,301,-368v189,-126,410,-170,660,-108v70,18,141,46,213,83r-55,309v-96,-93,-190,-157,-355,-157v-75,0,-144,21,-208,62v-64,41,-119,101,-164,179r497,0r-86,195r-483,0v-10,48,-16,94,-20,149r438,0r-88,195r-338,0"},"\u2122":{"d":"1153,-1493r119,227r119,-227r227,0r0,578r-170,0r0,-437r-137,256r-76,0r-137,-256r0,437r-172,0r0,-578r227,0xm813,-1493r0,143r-174,0r0,435r-172,0r0,-435r-172,0r0,-143r518,0","w":2048}}});
